{"learner":{"attributes":{"best_iteration":"10","best_score":"0.2825345438105783","scikit_learn":"{\"_estimator_type\": \"classifier\"}"},"feature_names":["age","job","marital","education","default","balance","housing","loan","contact","day","month","campaign","pdays","previous","poutcome"],"feature_types":["int","c","c","c","c","int","c","c","c","int","c","int","int","int","c"],"gradient_booster":{"model":{"gbtree_model_param":{"num_parallel_tree":"1","num_trees":"13"},"iteration_indptr":[0,1,2,3,4,5,6,7,8,9,10,11,12,13],"tree_info":[0,0,0,0,0,0,0,0,0,0,0,0,0],"trees":[{"base_weights":[3.8606416E-8,5.0440693E0,-1.7639616E-1,3.8276598E0,5.542524E0,2.699231E0,-2.8973407E-1,5.111883E0,2.861727E0,5.9560633E0,4.709037E0,2.8304117E0,6.5697956E-1,-3.301314E-1,2.1574376E0,1.22495085E-1,1.6235209E0,3.2498407E0,1.0715048E0,6.0451136E0,5.7992953E-1,1.4504625E0,3.8185558E-1,6.4348036E-1,2.9187038E0,-5.675963E-1,1.8766887E0,-7.010524E-1,-1.1527308E-1,2.2692382E0,-2.2093055E-1,1.00143366E-1,3.4068794E0,1.7797748E0,5.5264834E-2,1.8346837E0,5.7353294E-1,1.3924767E0,-2.2093055E-1,2.988527E0,6.8355644E-1,-2.644525E-1,1.22495085E-1,9.6505994E-1,-2.06488E-1,-1.2316305E-1,-7.431307E-1,2.6757581E0,-1.7995097E-1,2.5082684E0,6.609394E-1,1.2035661E0,5.845636E-1,7.9853565E-2,7.4960864E-1,-1.807131E-1,1.8939796E-1,6.5167755E-1,-6.669201E-2,9.72884E-1,6.9172156E-1,-2.008606E-1,4.250009E-1,1.4443016E-1,-1.6356081E-1,-1.8375999E-1,-2.4598072E-1,1.3289754E-1,8.417481E-1,-5.9629668E-2,1.3306792E0,7.920468E-1,-2.116771E-1,7.0157784E-1,4.1307034E-3],"categories":[0,1,3,0,0,1,3,4,5,6,8,9,0,2,3,4,8,9,1,2,8,9,2,2,3,0,2,0,1,2,11,4,5,6,8,0,1,2,3,4,5,7,8,9,10,11,0,3,6,8,11,1,2],"categories_nodes":[0,1,2,3,4,5,9,13,14,26,27,28,39,46,49],"categories_segments":[0,3,4,12,18,22,23,25,26,27,31,35,46,51,52],"categories_sizes":[3,1,8,6,4,1,2,1,1,4,4,11,5,1,1],"default_left":[1,1,1,1,1,1,0,0,0,1,0,0,0,1,1,0,0,0,0,0,0,0,0,0,0,0,1,1,1,0,0,0,0,0,0,0,0,0,0,1,0,0,0,0,0,0,1,0,0,1,0,0,0,0,0,0,0,0,0,0,0,0,0,0,0,0,0,0,0,0,0,0,0,0,0],"id":0,"left_children":[1,3,5,7,9,11,13,15,17,19,21,23,25,27,29,-1,-1,31,33,35,-1,-1,-1,37,39,41,43,45,47,49,-1,-1,51,53,55,-1,-1,57,-1,59,61,-1,-1,-1,-1,63,65,67,69,71,73,-1,-1,-1,-1,-1,-1,-1,-1,-1,-1,-1,-1,-1,-1,-1,-1,-1,-1,-1,-1,-1,-1,-1,-1],"loss_changes":[3.325923E3,5.5366943E1,1.1779038E3,3.4921753E1,2.064209E0,3.4856323E1,3.4431433E2,2.0180786E1,1.39362335E1,7.8795166E0,8.438049E0,2.2929077E1,1.5365286E1,2.72485E2,1.9975769E1,0E0,0E0,8.072128E0,4.190404E0,3.7407227E0,0E0,0E0,0E0,7.5041895E0,1.7185303E1,2.058739E0,1.9500736E1,3.0407837E1,3.9163354E2,1.9377136E1,0E0,0E0,8.923935E0,3.1208658E0,1.6983833E0,0E0,0E0,6.034585E0,0E0,1.3225586E1,5.9369063E0,0E0,0E0,0E0,0E0,2.2290138E1,1.1222778E1,1.3027527E1,1.84868E2,2.1903046E1,9.128896E0,0E0,0E0,0E0,0E0,0E0,0E0,0E0,0E0,0E0,0E0,0E0,0E0,0E0,0E0,0E0,0E0,0E0,0E0,0E0,0E0,0E0,0E0,0E0,0E0],"parents":[2147483647,0,0,1,1,2,2,3,3,4,4,5,5,6,6,7,7,8,8,9,9,10,10,11,11,12,12,13,13,14,14,17,17,18,18,19,19,23,23,24,24,25,25,26,26,27,27,28,28,29,29,32,32,33,33,34,34,37,37,39,39,40,40,45,45,46,46,47,47,48,48,49,49,50,50],"right_children":[2,4,6,8,10,12,14,16,18,20,22,24,26,28,30,-1,-1,32,34,36,-1,-1,-1,38,40,42,44,46,48,50,-1,-1,52,54,56,-1,-1,58,-1,60,62,-1,-1,-1,-1,64,66,68,70,72,74,-1,-1,-1,-1,-1,-1,-1,-1,-1,-1,-1,-1,-1,-1,-1,-1,-1,-1,-1,-1,-1,-1,-1,-1],"split_conditions":[1E-45,1E-45,1E-45,1E-45,1E-45,1E-45,6.1E1,8.5E1,3E0,1E-45,5E0,2E0,1.7E1,1E-45,1E-45,1.22495085E-1,1.6235209E0,5.3E1,1.004E3,1.1E1,5.7992953E-1,1.4504625E0,3.8185558E-1,1.625E3,6E0,4E1,1E-45,1E-45,1E-45,1.01E2,-2.2093055E-1,1.00143366E-1,2.03E2,3.7E1,1.806E3,1.8346837E0,5.7353294E-1,3.8E1,-2.2093055E-1,1E-45,3.3E1,-2.644525E-1,1.22495085E-1,9.6505994E-1,-2.06488E-1,1.6E1,1E-45,2.5E1,3.85E2,1E-45,4.86E2,1.2035661E0,5.845636E-1,7.9853565E-2,7.4960864E-1,-1.807131E-1,1.8939796E-1,6.5167755E-1,-6.669201E-2,9.72884E-1,6.9172156E-1,-2.008606E-1,4.250009E-1,1.4443016E-1,-1.6356081E-1,-1.8375999E-1,-2.4598072E-1,1.3289754E-1,8.417481E-1,-5.9629668E-2,1.3306792E0,7.920468E-1,-2.116771E-1,7.0157784E-1,4.1307034E-3],"split_indices":[14,6,10,10,10,8,0,12,11,1,11,9,9,8,2,0,0,12,5,13,0,0,0,5,11,0,10,10,10,12,0,0,12,0,5,0,0,0,0,1,0,0,0,0,0,9,2,0,12,8,5,0,0,0,0,0,0,0,0,0,0,0,0,0,0,0,0,0,0,0,0,0,0,0,0],"split_type":[1,1,1,1,1,1,0,0,0,1,0,0,0,1,1,0,0,0,0,0,0,0,0,0,0,0,1,1,1,0,0,0,0,0,0,0,0,0,0,1,0,0,0,0,0,0,1,0,0,1,0,0,0,0,0,0,0,0,0,0,0,0,0,0,0,0,0,0,0,0,0,0,0,0,0],"sum_hessian":[3.7360225E3,1.253054E2,3.610717E3,3.8944878E1,8.636053E1,1.3604881E2,3.4746682E3,1.4875497E1,2.406938E1,5.361377E1,3.2746754E1,1.2747475E2,8.574071E0,3.4190916E3,5.5576508E1,1.0330206E0,1.3842476E1,1.9110882E1,4.958499E0,5.1960938E1,1.652833E0,3.1197222E1,1.549531E0,5.268405E0,1.2220634E2,4.545291E0,4.0287805E0,1.2532606E3,2.165831E3,5.371707E1,1.8594371E0,1.1363227E0,1.7974558E1,2.4792495E0,2.4792495E0,5.061801E1,1.3429267E0,3.408968E0,1.8594371E0,1.1817756E2,4.0287805E0,3.51227E0,1.0330206E0,2.4792495E0,1.549531E0,8.53275E1,1.1679331E3,4.813876E1,2.1176924E3,4.6279324E1,7.4377484E0,1.1466529E1,6.50803E0,1.2396247E0,1.2396247E0,1.1363227E0,1.3429267E0,2.0660412E0,1.3429267E0,8.336476E1,3.4812794E1,1.4462289E0,2.5825515E0,3.5019398E1,5.0308105E1,4.358314E2,7.321017E2,2.8924577E0,4.5246304E1,2.1100479E3,7.6443524E0,4.462649E1,1.652833E0,1.3429267E0,6.0948215E0],"tree_param":{"num_deleted":"0","num_feature":"15","num_nodes":"75","size_leaf_vector":"1"}},{"base_weights":[-5.5717215E-2,7.084573E-1,-2.5744098E-1,4.093965E-1,1.7831867E0,8.3011764E-1,-3.5694706E-1,-1.4570816E-1,8.988974E-1,2.5819826E0,1.2013919E0,2.798324E-1,1.2612084E0,-2.0963395E-1,-6.609478E-1,1.2894871E0,-3.136733E-1,3.2270357E-1,1.4096717E0,2.9225652E0,1.3679945E0,1.7108036E0,9.3371123E-1,1.0655676E0,-2.9181716E-1,1.0328423E0,1.6178018E0,7.146286E-1,-2.86407E-1,-5.131219E-1,-7.566478E-1,-4.683567E-2,1.442421E0,-3.529789E-1,2.4316294E0,1.5946162E0,7.094552E-2,1.7085524E0,4.2958534E-1,3.508351E0,1.7423787E0,7.46472E-1,1.6573404E0,1.807595E0,-4.745361E-2,1.1077904E0,6.800665E-2,1.3011799E0,3.6256355E-1,1.178015E0,-4.5242822E-1,1.4784228E0,7.3805414E-2,-2.3598598E-1,1.7193732E0,1.1679693E0,3.147495E-1,1.0237654E0,-3.1776568E-1,-5.4409546E-1,2.1069767E-1,-2.91583E-1,-7.706487E-1,-1.7637646E-1,2.3844148E-1,5.31823E-1,2.0863253E-1,1.7619483E-1,-1.2079944E-1,8.475729E-1,2.2476897E-1,5.609993E-1,1.52246E-1,-6.7935966E-2,1.5352397E-1,6.328727E-1,3.4066287E-1,3.974838E-1,3.2406326E-2,1.0988445E0,-6.667127E-2,7.2185004E-1,2.7205494E-1,3.8800985E-1,-2.1169789E-1,5.309806E-1,1.1976386E-1,1.58556E-1,5.809082E-1,3.8405186E-1,1.5131341E-1,2.3497123E-1,-1.4721777E-1,2.5524384E-1,5.3317314E-1,-4.6910994E-2,4.751282E-1,6.0737E-1,-3.180048E-2,-5.435041E-2,-2.0971462E-1,5.9961885E-1,3.4928626E-1,3.3878678E-1,-9.620953E-2,-2.5969756E-1,2.0754278E-1,2.2480789E-1,5.8354336E-1,5.6225365E-1,2.57324E-1,-4.1820634E-2,1.9989435E-1,3.1051958E-2,5.464877E-1,2.9989323E-1,-1.029977E-1,3.863002E-1,-1.6686767E-1,-3.638549E-2,4.8678496E-1,1.6474193E-1,-1.8875392E-1,1.1122324E-1,-2.3255576E-1],"categories":[1,4,5,6,8,9,0,3,0,1,2,4,5,6,7,8,9,10,11,0,2,0,1,3,4,5,6,8,9,10,2,1,1,0,1,2,3,4,5,6,8,9,10,11,1,4,5,6,8,9,10,8,0,2,3,8,9,11,4,8,9,0,0,1,2,3,4,7,8,10,11,0,1,0,1,3,0,1,2,3,4,5,10,11,1,2,3,6,1,2,9,10,11,2,7,11,1,2,6,8,9,2,4,5,6,9,11,1,4,8,9,3,4,5,6,8,9,10,11,0,1,4,5,8,9,0,1,2,3,4,5,6,8,0,1,2,3,4,5,8,5,6,8,9],"categories_nodes":[0,2,3,4,5,6,7,9,11,14,15,17,18,21,22,23,24,26,27,32,33,38,42,45,46,50,51,52,55,57,58,59,61,62],"categories_segments":[0,6,8,9,19,20,21,30,31,32,33,34,44,51,52,53,58,61,62,71,73,76,84,88,93,96,101,107,111,119,120,125,133,140],"categories_sizes":[6,2,1,10,1,1,9,1,1,1,1,10,7,1,1,5,3,1,9,2,3,8,4,5,3,5,6,4,8,1,5,8,7,4],"default_left":[1,0,1,1,1,1,1,1,0,1,0,1,0,0,1,1,0,1,1,0,0,1,1,1,1,0,1,1,0,0,0,0,1,1,0,0,0,0,1,0,0,0,1,0,0,1,1,0,0,0,1,1,1,0,0,1,0,1,1,1,0,1,1,0,0,0,0,0,0,0,0,0,0,0,0,0,0,0,0,0,0,0,0,0,0,0,0,0,0,0,0,0,0,0,0,0,0,0,0,0,0,0,0,0,0,0,0,0,0,0,0,0,0,0,0,0,0,0,0,0,0,0,0,0,0],"id":1,"left_children":[1,3,5,7,9,11,13,15,17,19,21,23,25,27,29,31,33,35,37,39,41,43,45,47,49,51,53,55,57,59,61,63,65,67,69,71,73,75,77,79,81,83,85,87,-1,89,91,93,95,97,99,101,103,105,107,109,111,113,115,117,119,121,123,-1,-1,-1,-1,-1,-1,-1,-1,-1,-1,-1,-1,-1,-1,-1,-1,-1,-1,-1,-1,-1,-1,-1,-1,-1,-1,-1,-1,-1,-1,-1,-1,-1,-1,-1,-1,-1,-1,-1,-1,-1,-1,-1,-1,-1,-1,-1,-1,-1,-1,-1,-1,-1,-1,-1,-1,-1,-1,-1,-1,-1,-1],"loss_changes":[5.8101E2,2.5227484E2,3.2297327E2,1.678151E2,7.6396545E1,5.901059E1,1.2223035E2,7.032187E1,9.609866E1,2.5447632E1,1.2153778E1,5.026266E1,9.732544E0,1.309122E2,1.22229E1,6.3178406E0,2.8962912E1,4.9667656E1,5.01221E1,3.1727081E1,1.9068146E0,6.3526306E0,1.021891E1,7.321438E0,1.5915386E1,3.7551575E1,1.0366943E1,2.5294212E1,7.023073E1,8.038101E0,3.2850342E0,2.33861E0,5.5462265E0,1.2273819E1,4.017563E-1,6.7271194E0,1.7265617E1,2.8098816E1,1.1922632E1,2.1323578E1,8.989269E0,6.768039E0,8.671799E-1,4.241272E0,0E0,5.263275E0,5.3802786E0,5.9605484E0,8.610743E0,7.4933376E0,3.8513842E0,7.4994354E0,1.2441631E1,2.7180042E0,9.552795E0,1.284642E1,1.2320386E1,2.9187748E1,5.6323196E1,8.253014E0,7.3326993E0,5.27318E0,2.993988E0,0E0,0E0,0E0,0E0,0E0,0E0,0E0,0E0,0E0,0E0,0E0,0E0,0E0,0E0,0E0,0E0,0E0,0E0,0E0,0E0,0E0,0E0,0E0,0E0,0E0,0E0,0E0,0E0,0E0,0E0,0E0,0E0,0E0,0E0,0E0,0E0,0E0,0E0,0E0,0E0,0E0,0E0,0E0,0E0,0E0,0E0,0E0,0E0,0E0,0E0,0E0,0E0,0E0,0E0,0E0,0E0,0E0,0E0,0E0,0E0,0E0,0E0],"parents":[2147483647,0,0,1,1,2,2,3,3,4,4,5,5,6,6,7,7,8,8,9,9,10,10,11,11,12,12,13,13,14,14,15,15,16,16,17,17,18,18,19,19,20,20,21,21,22,22,23,23,24,24,25,25,26,26,27,27,28,28,29,29,30,30,31,31,32,32,33,33,34,34,35,35,36,36,37,37,38,38,39,39,40,40,41,41,42,42,43,43,45,45,46,46,47,47,48,48,49,49,50,50,51,51,52,52,53,53,54,54,55,55,56,56,57,57,58,58,59,59,60,60,61,61,62,62],"right_children":[2,4,6,8,10,12,14,16,18,20,22,24,26,28,30,32,34,36,38,40,42,44,46,48,50,52,54,56,58,60,62,64,66,68,70,72,74,76,78,80,82,84,86,88,-1,90,92,94,96,98,100,102,104,106,108,110,112,114,116,118,120,122,124,-1,-1,-1,-1,-1,-1,-1,-1,-1,-1,-1,-1,-1,-1,-1,-1,-1,-1,-1,-1,-1,-1,-1,-1,-1,-1,-1,-1,-1,-1,-1,-1,-1,-1,-1,-1,-1,-1,-1,-1,-1,-1,-1,-1,-1,-1,-1,-1,-1,-1,-1,-1,-1,-1,-1,-1,-1,-1,-1,-1,-1,-1],"split_conditions":[1E-45,2.1E1,1E-45,1E-45,1E-45,1E-45,1E-45,1E-45,8E0,1E-45,2.4E1,1E-45,1.78E2,6E0,1E-45,1E-45,3.51E2,1E-45,1E-45,4.7E1,3.4E1,1E-45,1E-45,1E-45,1E-45,9.9E1,1E-45,1E-45,2.6E1,3E1,2.8E1,9E2,1E-45,1E-45,4.6E1,6.2E1,9.49E2,2E0,1E-45,6E0,2E0,1.355E3,1E-45,9E0,-4.745361E-2,1E-45,1E-45,4.2E1,6E0,1.82E2,1E-45,1E-45,1E-45,4.96E2,1E1,1E-45,3.59E2,1E-45,1E-45,1E-45,2.568E3,1E-45,1E-45,-1.7637646E-1,2.3844148E-1,5.31823E-1,2.0863253E-1,1.7619483E-1,-1.2079944E-1,8.475729E-1,2.2476897E-1,5.609993E-1,1.52246E-1,-6.7935966E-2,1.5352397E-1,6.328727E-1,3.4066287E-1,3.974838E-1,3.2406326E-2,1.0988445E0,-6.667127E-2,7.2185004E-1,2.7205494E-1,3.8800985E-1,-2.1169789E-1,5.309806E-1,1.1976386E-1,1.58556E-1,5.809082E-1,3.8405186E-1,1.5131341E-1,2.3497123E-1,-1.4721777E-1,2.5524384E-1,5.3317314E-1,-4.6910994E-2,4.751282E-1,6.0737E-1,-3.180048E-2,-5.435041E-2,-2.0971462E-1,5.9961885E-1,3.4928626E-1,3.3878678E-1,-9.620953E-2,-2.5969756E-1,2.0754278E-1,2.2480789E-1,5.8354336E-1,5.6225365E-1,2.57324E-1,-4.1820634E-2,1.9989435E-1,3.1051958E-2,5.464877E-1,2.9989323E-1,-1.029977E-1,3.863002E-1,-1.6686767E-1,-3.638549E-2,4.8678496E-1,1.6474193E-1,-1.8875392E-1,1.1122324E-1,-2.3255576E-1],"split_indices":[10,9,14,6,10,6,8,10,9,14,9,14,12,9,2,8,12,10,10,0,0,1,14,1,10,12,7,10,0,9,0,5,14,14,0,0,5,12,1,11,11,5,1,5,0,1,10,0,13,12,1,1,10,5,9,1,5,6,10,10,5,10,10,0,0,0,0,0,0,0,0,0,0,0,0,0,0,0,0,0,0,0,0,0,0,0,0,0,0,0,0,0,0,0,0,0,0,0,0,0,0,0,0,0,0,0,0,0,0,0,0,0,0,0,0,0,0,0,0,0,0,0,0,0,0],"split_type":[1,0,1,1,1,1,1,1,0,1,0,1,0,0,1,1,0,1,1,0,0,1,1,1,1,0,1,1,0,0,0,0,1,1,0,0,0,0,1,0,0,0,1,0,0,1,1,0,0,0,1,1,1,0,0,1,0,1,1,1,0,1,1,0,0,0,0,0,0,0,0,0,0,0,0,0,0,0,0,0,0,0,0,0,0,0,0,0,0,0,0,0,0,0,0,0,0,0,0,0,0,0,0,0,0,0,0,0,0,0,0,0,0,0,0,0,0,0,0,0,0,0,0,0,0],"sum_hessian":[3.7668848E3,7.8617334E2,2.9807114E3,6.161113E2,1.70062E2,2.4924364E2,2.7314678E3,2.8903815E2,3.270732E2,7.0217026E1,9.984496E1,1.10210106E2,1.3903354E2,1.8410289E3,8.904389E2,2.9583319E1,2.5945483E2,1.5446089E2,1.7261234E2,5.373449E1,1.6482533E1,3.253596E1,6.7309006E1,4.6050053E1,6.416005E1,8.713059E1,5.190294E1,1.4055798E2,1.700471E3,3.5242178E2,5.3801715E2,3.1091955E0,2.6474123E1,2.5665167E2,2.8031623E0,2.464044E1,1.2982045E2,1.3170512E2,4.090721E1,3.459202E1,1.9142473E1,6.373007E0,1.0109525E1,3.0965174E1,1.570789E0,5.58074E1,1.1501602E1,3.3853233E1,1.2196817E1,5.696249E0,5.8463802E1,5.912077E1,2.800982E1,2.6273665E0,4.9275574E1,6.497518E1,7.55828E1,3.900924E1,1.6614618E3,3.3819797E2,1.4223822E1,1.6361643E1,5.2165546E2,2.076003E0,1.0331925E0,1.7404467E1,9.069656E0,1.2337949E1,2.4431372E2,1.721182E0,1.0819805E0,1.9085705E1,5.554734E0,7.781001E1,5.2010433E1,7.590272E1,5.58024E1,9.984935E0,3.0922276E1,3.323414E1,1.3578807E0,9.620015E0,9.522457E0,4.708899E0,1.6641077E0,8.905716E0,1.203809E0,3.2990458E0,2.7666128E1,4.253459E1,1.3272808E1,4.8681264E0,6.633476E0,1.8828365E1,1.502487E1,9.171464E0,3.0253537E0,3.0853405E0,2.6109085E0,2.8667145E1,2.979666E1,2.0237873E1,3.88829E1,7.1139894E0,2.0895832E1,1.6050378E0,1.0223286E0,1.0118995E1,3.9156578E1,1.8292238E1,4.668294E1,3.3242992E1,4.2339813E1,1.8639736E1,2.0369505E1,3.0896326E1,1.6305654E3,1.5330746E0,3.366649E2,1.2256149E1,1.9676731E0,4.5081944E0,1.1853448E1,1.7458268E0,5.1990967E2],"tree_param":{"num_deleted":"0","num_feature":"15","num_nodes":"125","size_leaf_vector":"1"}},{"base_weights":[-5.6497324E-2,4.1471243E-1,-2.0434238E-1,5.527169E-2,6.332847E-1,5.4920113E-1,-2.8279987E-1,-1.10892534E-1,8.532262E-1,2.0615624E-1,8.163054E-1,9.211268E-1,2.803606E-1,-1.610265E-1,-5.637553E-1,6.5164375E-1,-2.659923E-1,1.0419512E0,1.6801159E-1,7.0208067E-1,-9.4655804E-2,3.3228102E-1,9.086975E-1,1.3742955E0,7.6324767E-1,6.9293964E-1,-1.7241402E-1,4.9491253E-2,-3.4954116E-1,-4.1788524E-1,-6.642332E-1,1.2052157E0,2.5897032E-1,-2.906268E-1,5.60748E-1,2.968537E-1,1.2733045E0,6.29303E-1,-6.0918933E-1,7.6385987E-1,-3.6590922E-1,7.0962613E-3,-8.232779E-1,-4.9315434E-2,8.8830227E-1,1.1302708E0,7.060052E-1,2.2685099E-1,1.6148086E0,9.1379E-1,3.0275655E-1,1.0295428E0,2.9793182E-1,-3.654343E-1,3.273438E-1,2.2732444E0,-3.27272E-2,5.8185154E-1,-4.487598E-1,-4.6595007E-1,5.8116935E-2,-5.3987277E-1,-7.360594E-1,3.9102292E-1,-5.9724557E-3,1.5877444E-1,-1.6356187E-1,-1.20309524E-1,4.1628286E-2,3.9371917E-1,-6.571966E-2,4.783336E-1,2.3991196E-1,2.676544E-1,3.347367E-2,-3.0836728E-1,8.75251E-2,2.6886347E-1,4.298747E-2,1.2217781E-1,-2.7836388E-1,-3.5241976E-2,2.8063467E-1,-3.035475E-1,1.1803479E-1,2.8586859E-2,-2.2352172E-1,3.4001142E-1,6.3939944E-2,4.3920842E-1,2.4396467E-1,1.075893E-2,2.3328175E-1,-1.4595053E-1,3.3290145E-1,9.6417675E-3,5.36128E-1,2.4596988E-1,4.972473E-1,-1.9824092E-1,1.3447402E-1,1.5894908E-1,3.882821E-1,3.4894353E-1,-1.5151967E-2,-1.3296308E-1,1.3857621E-1,1.9923031E-1,-2.340966E-1,4.1894373E-1,8.9464927E-1,1.15247354E-1,-3.9345335E-2,1.651842E-2,3.3485985E-1,-1.4095569E-1,2.392488E-1,2.8094393E-1,-1.4363149E-1,1.6580886E-1,-1.3062702E-1,1.092664E-2,-1.824011E-1,-1.9500114E-1,-2.700614E-1],"categories":[1,4,5,6,8,9,0,0,3,0,2,3,4,7,8,9,10,11,2,0,3,1,2,4,5,6,7,8,9,11,1,3,4,5,6,8,9,10,0,0,2,3,1,1,1,1,2,4,5,6,7,8,9,10,11,3,6,9,11,0,0,1,2,3,5,6,7,8,10,11,1,4,5,9,5,8,0,2,3,6,2,0,0,1,2,3,5,6,7,10,11,0,1,2,4,6,7,9,11,0,1,2,3,4,5,6,8,0,1,2,3,5,7,8,2,3,4,6,7,10],"categories_nodes":[0,1,2,5,6,7,8,9,10,11,12,14,15,22,24,26,27,28,30,32,36,44,45,52,59,60,62],"categories_segments":[0,6,7,9,18,19,21,30,38,39,42,43,44,45,55,59,60,70,74,76,80,81,82,91,99,107,114],"categories_sizes":[6,1,2,9,1,2,9,8,1,3,1,1,1,10,4,1,10,4,2,4,1,1,9,8,8,7,6],"default_left":[1,1,1,0,0,1,1,1,1,1,1,1,1,0,1,1,0,0,0,0,0,0,1,0,1,0,1,1,1,0,1,0,1,0,0,0,1,0,0,0,0,0,0,0,1,1,0,0,0,0,0,0,1,0,0,0,0,0,0,1,1,0,1,0,0,0,0,0,0,0,0,0,0,0,0,0,0,0,0,0,0,0,0,0,0,0,0,0,0,0,0,0,0,0,0,0,0,0,0,0,0,0,0,0,0,0,0,0,0,0,0,0,0,0,0,0,0,0,0,0,0,0,0,0,0],"id":2,"left_children":[1,3,5,7,9,11,13,15,17,19,21,23,25,27,29,31,33,35,37,39,41,43,45,47,49,51,53,55,57,59,61,63,65,67,-1,69,71,73,75,77,79,81,83,85,87,89,91,93,95,97,99,101,103,105,107,109,111,113,115,117,119,121,123,-1,-1,-1,-1,-1,-1,-1,-1,-1,-1,-1,-1,-1,-1,-1,-1,-1,-1,-1,-1,-1,-1,-1,-1,-1,-1,-1,-1,-1,-1,-1,-1,-1,-1,-1,-1,-1,-1,-1,-1,-1,-1,-1,-1,-1,-1,-1,-1,-1,-1,-1,-1,-1,-1,-1,-1,-1,-1,-1,-1,-1,-1],"loss_changes":[2.5319917E2,6.816135E1,1.636972E2,4.3762184E1,4.202176E1,2.5858139E1,8.564752E1,3.2515602E1,7.1799927E0,2.4416553E1,1.6578644E1,6.7602463E0,2.870898E1,6.945435E1,1.0822678E1,9.798092E0,1.2533134E1,7.2759895E0,5.2141824E0,4.353462E0,7.6036253E0,1.3215772E1,1.3411591E1,7.0718307E0,5.4908295E0,1.0366821E1,7.2355843E0,1.5136443E2,8.55755E1,7.156082E0,3.593155E0,2.3149471E0,6.479459E0,1.0779839E1,0E0,6.4826574E0,3.8317528E0,1.1182094E0,2.3847535E0,4.692238E0,2.138719E0,1.0623616E1,3.2809305E0,3.8702323E0,3.9477043E0,1.4628571E1,8.028389E0,4.213814E0,5.9735794E0,2.9844894E0,3.3793612E0,4.994087E0,1.1617529E1,3.6594486E0,8.381622E0,1.4182205E1,3.2832733E1,2.5079325E1,2.232106E1,5.539379E0,7.433434E0,6.5914307E0,3.376236E0,0E0,0E0,0E0,0E0,0E0,0E0,0E0,0E0,0E0,0E0,0E0,0E0,0E0,0E0,0E0,0E0,0E0,0E0,0E0,0E0,0E0,0E0,0E0,0E0,0E0,0E0,0E0,0E0,0E0,0E0,0E0,0E0,0E0,0E0,0E0,0E0,0E0,0E0,0E0,0E0,0E0,0E0,0E0,0E0,0E0,0E0,0E0,0E0,0E0,0E0,0E0,0E0,0E0,0E0,0E0,0E0,0E0,0E0,0E0,0E0,0E0,0E0],"parents":[2147483647,0,0,1,1,2,2,3,3,4,4,5,5,6,6,7,7,8,8,9,9,10,10,11,11,12,12,13,13,14,14,15,15,16,16,17,17,18,18,19,19,20,20,21,21,22,22,23,23,24,24,25,25,26,26,27,27,28,28,29,29,30,30,31,31,32,32,33,33,35,35,36,36,37,37,38,38,39,39,40,40,41,41,42,42,43,43,44,44,45,45,46,46,47,47,48,48,49,49,50,50,51,51,52,52,53,53,54,54,55,55,56,56,57,57,58,58,59,59,60,60,61,61,62,62],"right_children":[2,4,6,8,10,12,14,16,18,20,22,24,26,28,30,32,34,36,38,40,42,44,46,48,50,52,54,56,58,60,62,64,66,68,-1,70,72,74,76,78,80,82,84,86,88,90,92,94,96,98,100,102,104,106,108,110,112,114,116,118,120,122,124,-1,-1,-1,-1,-1,-1,-1,-1,-1,-1,-1,-1,-1,-1,-1,-1,-1,-1,-1,-1,-1,-1,-1,-1,-1,-1,-1,-1,-1,-1,-1,-1,-1,-1,-1,-1,-1,-1,-1,-1,-1,-1,-1,-1,-1,-1,-1,-1,-1,-1,-1,-1,-1,-1,-1,-1,-1,-1,-1,-1,-1,-1],"split_conditions":[1E-45,1E-45,1E-45,2.1E1,8E0,1E-45,1E-45,1E-45,1E-45,1E-45,1E-45,1E-45,1E-45,1.7E1,1E-45,1E-45,3.51E2,9E1,2.8E1,6E0,1.82E2,1.695E3,1E-45,2E2,1E-45,1.5E1,1E-45,1E-45,1E-45,3.165E3,1E-45,6E0,1E-45,1.596E3,5.60748E-1,2.4E1,1E-45,2.5E1,4.1E1,7E0,4.7E1,1.2E1,2.75E2,4E0,1E-45,1E-45,6.8E1,1.8E1,3E0,2.8E1,1E0,9E0,1E-45,4.867E3,2.9E1,1.1E1,6E0,1.9E1,6.1E1,1E-45,1E-45,3.4E1,1E-45,3.9102292E-1,-5.9724557E-3,1.5877444E-1,-1.6356187E-1,-1.20309524E-1,4.1628286E-2,3.9371917E-1,-6.571966E-2,4.783336E-1,2.3991196E-1,2.676544E-1,3.347367E-2,-3.0836728E-1,8.75251E-2,2.6886347E-1,4.298747E-2,1.2217781E-1,-2.7836388E-1,-3.5241976E-2,2.8063467E-1,-3.035475E-1,1.1803479E-1,2.8586859E-2,-2.2352172E-1,3.4001142E-1,6.3939944E-2,4.3920842E-1,2.4396467E-1,1.075893E-2,2.3328175E-1,-1.4595053E-1,3.3290145E-1,9.6417675E-3,5.36128E-1,2.4596988E-1,4.972473E-1,-1.9824092E-1,1.3447402E-1,1.5894908E-1,3.882821E-1,3.4894353E-1,-1.5151967E-2,-1.3296308E-1,1.3857621E-1,1.9923031E-1,-2.340966E-1,4.1894373E-1,8.9464927E-1,1.15247354E-1,-3.9345335E-2,1.651842E-2,3.3485985E-1,-1.4095569E-1,2.392488E-1,2.8094393E-1,-1.4363149E-1,1.6580886E-1,-1.3062702E-1,1.092664E-2,-1.824011E-1,-1.9500114E-1,-2.700614E-1],"split_indices":[10,6,14,9,9,10,8,10,10,10,8,14,14,9,2,2,12,5,9,13,12,5,10,5,1,9,6,10,10,5,10,13,1,5,0,9,3,9,0,9,0,12,12,11,3,1,5,9,9,9,5,9,1,5,9,9,9,9,0,10,1,0,1,0,0,0,0,0,0,0,0,0,0,0,0,0,0,0,0,0,0,0,0,0,0,0,0,0,0,0,0,0,0,0,0,0,0,0,0,0,0,0,0,0,0,0,0,0,0,0,0,0,0,0,0,0,0,0,0,0,0,0,0,0,0],"split_type":[1,1,1,0,0,1,1,1,1,1,1,1,1,0,1,1,0,0,0,0,0,0,1,0,1,0,1,1,1,0,1,0,1,0,0,0,1,0,0,0,0,0,0,0,1,1,0,0,0,0,0,0,1,0,0,0,0,0,0,1,1,0,1,0,0,0,0,0,0,0,0,0,0,0,0,0,0,0,0,0,0,0,0,0,0,0,0,0,0,0,0,0,0,0,0,0,0,0,0,0,0,0,0,0,0,0,0,0,0,0,0,0,0,0,0,0,0,0,0,0,0,0,0,0,0],"sum_hessian":[3.6322546E3,8.6703796E2,2.7652168E3,3.2833917E2,5.3869885E2,2.6019348E2,2.5050232E3,2.724631E2,5.5876064E1,1.6222624E2,3.764726E2,1.0814906E2,1.5204442E2,1.748675E3,7.563482E2,4.551088E1,2.2695222E2,4.340158E1,1.2474481E1,6.074573E1,1.0148051E2,6.108045E1,3.1539215E2,2.5952242E1,8.2196815E1,7.92759E1,7.276852E1,8.2647406E2,9.22201E2,3.1059598E2,4.4575223E2,1.802743E1,2.7483452E1,2.2521764E2,1.734579E0,1.0824209E1,3.2577374E1,7.947628E0,4.526853E0,5.7693165E1,3.0525672E0,8.9914246E1,1.1566262E1,3.676203E1,2.4318415E1,1.4849182E2,1.6690031E2,4.8338766E0,2.1118366E1,6.1203857E1,2.0992958E1,4.1934944E1,3.7340958E1,5.2687805E1,2.008071E1,2.8517433E1,7.9795667E2,8.831349E1,8.338875E2,2.821288E2,2.8467146E1,1.6631294E2,2.7943927E2,1.6630583E1,1.3968455E0,2.0825895E1,6.657555E0,1.7920593E2,4.6011715E1,3.1263835E0,7.6978254E0,1.800306E1,1.4574313E1,4.7914553E0,3.1561728E0,2.9943519E0,1.5325012E0,4.7185505E1,1.0507661E1,1.4007256E0,1.6518416E0,8.004675E1,9.867486E0,1.0160215E1,1.4060473E0,3.1150753E1,5.6112785E0,1.734425E1,6.9741645E0,7.057816E1,7.7913666E1,1.6255789E1,1.5064453E2,2.921841E0,1.9120358E0,2.1896858E0,1.892868E1,5.620995E1,4.9939075E0,2.2893076E0,1.8703651E1,1.5561687E1,2.6373255E1,1.0049273E1,2.7291687E1,4.858486E1,4.102942E0,1.5706119E1,4.3745904E0,1.4077179E1,1.4440254E1,1.5185507E2,6.4610156E2,4.50267E1,4.3286793E1,8.2062177E2,1.3265764E1,1.9033129E0,2.802255E2,1.4158741E1,1.4308404E1,1.7632368E1,1.4868057E2,1.865812E2,9.285808E1],"tree_param":{"num_deleted":"0","num_feature":"15","num_nodes":"125","size_leaf_vector":"1"}},{"base_weights":[-4.9446188E-2,6.2560713E-1,-1.08534396E-1,7.584733E-1,3.6004955E-1,-1.736452E-2,-4.5147246E-1,3.6786646E-2,8.009334E-1,2.1561061E-1,8.3618796E-1,-2.1636818E-1,1.4180551E-1,5.798323E-1,-4.750062E-1,8.3669305E-1,-3.3518896E-1,8.1556636E-1,-2.1401422E-1,5.700173E-1,2.098717E-2,1.0462793E0,-2.8795952E-1,-3.8318574E-2,-3.3117682E-1,-2.7659875E-1,2.6796064E-1,-4.2096958E-1,9.58099E-1,-3.4258854E-1,-5.7224405E-1,3.3845723E-1,2.9960422E-2,7.2813433E-1,-9.068121E-1,8.311198E-1,-1.6324896E-1,1.0724796E0,2.481224E-1,-1.7183729E-1,7.189052E-1,1.2168568E0,6.6379886E-3,6.1424977E-1,-9.2988245E-2,-4.5198277E-1,-6.6559695E-2,1.2134914E-4,-4.314736E-1,5.4960805E-1,1.2797154E-1,5.865606E-3,-6.4692444E-1,1.2386742E0,-8.613193E-2,-3.743886E-1,2.644424E-1,-4.6925664E-1,-6.757622E-1,-4.016602E-2,3.6129075E-1,-3.5994685E-1,3.8951196E-2,2.6522958E-1,1.1472786E-1,3.5897076E-1,1.6439626E-2,1.45532E-1,-1.6649942E-1,2.7320573E-2,-1.3948292E-1,3.008843E-1,-1.2982891E-2,5.323258E-1,2.6873317E-1,2.9364288E-1,-2.4695542E-1,2.3966016E-1,6.761289E-3,-1.0843671E-2,-1.8376082E-1,-1.3981609E-1,2.8885502E-1,2.1385956E-1,-5.0175924E-2,3.3521615E-2,-1.5668319E-1,-6.063901E-2,-1.8100747E-1,1.9061542E-1,8.981015E-2,3.9910868E-1,2.4242325E-2,-6.1246615E-2,-2.2585158E-1,4.366262E-1,-5.1989023E-2,-6.5566555E-2,-1.3860221E-1,1.2039611E-2,4.1824248E-1,-2.149783E-1,-1.0689958E-1,-1.7343625E-1,-2.3266917E-1],"categories":[0,1,3,0,2,6,9,2,0,1,2,5,6,8,11,3,5,6,10,2,1,1,1,2,3,4,5,6,7,8,10,11,0,1,3,4,5,8,9,1,2,4,5,1,3,4,5,9,10,0,2,9,1,2,9,2,4,5,6,7,8,9,11,0,1,2,3,4,5,6,7,8,0,1,4,5,8,9,10,11,0,3,1,8,11,1,3,6,7],"categories_nodes":[0,1,2,5,6,7,8,11,14,21,23,25,26,28,34,35,39,40,42,46,47,55,58],"categories_segments":[0,3,7,8,9,15,19,20,21,22,32,39,43,49,50,51,52,55,63,72,80,82,85],"categories_sizes":[3,4,1,1,6,4,1,1,1,10,7,4,6,1,1,1,3,8,9,8,2,3,4],"default_left":[1,1,1,0,0,1,1,1,1,0,0,1,0,0,1,0,0,0,0,0,0,1,0,1,0,1,1,0,1,0,0,0,0,0,1,1,0,0,0,1,1,0,1,0,0,0,1,1,0,0,0,0,0,0,0,1,0,0,1,0,0,0,0,0,0,0,0,0,0,0,0,0,0,0,0,0,0,0,0,0,0,0,0,0,0,0,0,0,0,0,0,0,0,0,0,0,0,0,0,0,0,0,0,0,0],"id":3,"left_children":[1,3,5,7,9,11,13,15,17,19,21,23,25,27,29,31,33,35,-1,37,39,41,-1,43,45,47,49,51,53,55,57,-1,-1,59,61,63,-1,65,67,69,71,73,75,77,79,81,83,85,87,89,91,-1,93,95,-1,97,99,101,103,-1,-1,-1,-1,-1,-1,-1,-1,-1,-1,-1,-1,-1,-1,-1,-1,-1,-1,-1,-1,-1,-1,-1,-1,-1,-1,-1,-1,-1,-1,-1,-1,-1,-1,-1,-1,-1,-1,-1,-1,-1,-1,-1,-1,-1,-1],"loss_changes":[1.3912569E2,9.632469E0,1.0024511E2,5.6767426E0,6.389249E0,8.029983E1,1.661856E1,3.6710794E0,4.4777985E0,5.1363344E0,9.2626295E0,2.3015633E1,7.44241E1,6.2611394E0,8.28801E0,7.2564816E-1,5.8220263E0,4.14489E0,0E0,4.0071154E0,6.7471933E0,3.5515594E0,0E0,1.58531065E1,2.1860298E1,1.4006098E1,4.26205E1,5.042664E-1,4.3854885E0,5.532509E0,3.7173157E0,0E0,0E0,1.6076285E0,1.968698E0,3.7749405E0,0E0,1.199235E0,3.5818138E0,3.0762577E0,2.3918252E0,1.49646E0,3.8992677E0,3.7352114E0,1.2068716E1,9.80481E0,1.7056341E1,6.9547005E0,8.138088E0,7.5197296E0,4.0982723E1,0E0,7.715225E-4,3.190692E0,0E0,3.5566216E0,3.6431086E0,5.134468E0,1.3685913E0,0E0,0E0,0E0,0E0,0E0,0E0,0E0,0E0,0E0,0E0,0E0,0E0,0E0,0E0,0E0,0E0,0E0,0E0,0E0,0E0,0E0,0E0,0E0,0E0,0E0,0E0,0E0,0E0,0E0,0E0,0E0,0E0,0E0,0E0,0E0,0E0,0E0,0E0,0E0,0E0,0E0,0E0,0E0,0E0,0E0,0E0],"parents":[2147483647,0,0,1,1,2,2,3,3,4,4,5,5,6,6,7,7,8,8,9,9,10,10,11,11,12,12,13,13,14,14,15,15,16,16,17,17,19,19,20,20,21,21,23,23,24,24,25,25,26,26,27,27,28,28,29,29,30,30,33,33,34,34,35,35,37,37,38,38,39,39,40,40,41,41,42,42,43,43,44,44,45,45,46,46,47,47,48,48,49,49,50,50,52,52,53,53,55,55,56,56,57,57,58,58],"right_children":[2,4,6,8,10,12,14,16,18,20,22,24,26,28,30,32,34,36,-1,38,40,42,-1,44,46,48,50,52,54,56,58,-1,-1,60,62,64,-1,66,68,70,72,74,76,78,80,82,84,86,88,90,92,-1,94,96,-1,98,100,102,104,-1,-1,-1,-1,-1,-1,-1,-1,-1,-1,-1,-1,-1,-1,-1,-1,-1,-1,-1,-1,-1,-1,-1,-1,-1,-1,-1,-1,-1,-1,-1,-1,-1,-1,-1,-1,-1,-1,-1,-1,-1,-1,-1,-1,-1,-1],"split_conditions":[1E-45,1E-45,1E-45,3E0,5E0,1E-45,1E-45,1E-45,1E-45,1.1E1,4E0,1E-45,1.06E2,2.88E2,1E-45,1.123E3,2E0,7E0,-2.1401422E-1,4.78E2,5.2E1,1E-45,-2.8795952E-1,1E-45,1.084E3,1E-45,1E-45,1.4E1,1E-45,3E1,4.2E1,3.3845723E-1,2.9960422E-2,3.8E1,1E-45,1E-45,-1.6324896E-1,2.52E2,1.88E2,1E-45,1E-45,7E0,1E-45,1.732E3,2.8E1,3.85E2,1E-45,1E-45,1.9E1,5.5E1,2.6E1,5.865606E-3,3.5E1,2E0,-8.613193E-2,1E-45,4.017E3,8.6E1,1E-45,-4.016602E-2,3.6129075E-1,-3.5994685E-1,3.8951196E-2,2.6522958E-1,1.1472786E-1,3.5897076E-1,1.6439626E-2,1.45532E-1,-1.6649942E-1,2.7320573E-2,-1.3948292E-1,3.008843E-1,-1.2982891E-2,5.323258E-1,2.6873317E-1,2.9364288E-1,-2.4695542E-1,2.3966016E-1,6.761289E-3,-1.0843671E-2,-1.8376082E-1,-1.3981609E-1,2.8885502E-1,2.1385956E-1,-5.0175924E-2,3.3521615E-2,-1.5668319E-1,-6.063901E-2,-1.8100747E-1,1.9061542E-1,8.981015E-2,3.9910868E-1,2.4242325E-2,-6.1246615E-2,-2.2585158E-1,4.366262E-1,-5.1989023E-2,-6.5566555E-2,-1.3860221E-1,1.2039611E-2,4.1824248E-1,-2.149783E-1,-1.0689958E-1,-1.7343625E-1,-2.3266917E-1],"split_indices":[14,1,8,9,13,6,10,10,8,9,11,2,5,5,2,5,13,11,0,5,0,1,0,10,5,10,10,9,3,9,0,0,0,0,2,10,0,12,12,1,10,9,10,5,9,12,10,3,9,0,0,0,0,12,0,10,5,5,1,0,0,0,0,0,0,0,0,0,0,0,0,0,0,0,0,0,0,0,0,0,0,0,0,0,0,0,0,0,0,0,0,0,0,0,0,0,0,0,0,0,0,0,0,0,0],"split_type":[1,1,1,0,0,1,1,1,1,0,0,1,0,0,1,0,0,0,0,0,0,1,0,1,0,1,1,0,1,0,0,0,0,0,1,1,0,0,0,1,1,0,1,0,0,0,1,1,0,0,0,0,0,0,0,1,0,0,1,0,0,0,0,0,0,0,0,0,0,0,0,0,0,0,0,0,0,0,0,0,0,0,0,0,0,0,0,0,0,0,0,0,0,0,0,0,0,0,0,0,0,0,0,0,0],"sum_hessian":[3.4852324E3,2.7974118E2,3.2054912E3,1.852161E2,9.45251E1,2.5331147E3,6.7237634E2,1.0395324E1,1.7482077E2,7.363914E1,2.0885963E1,1.1255399E3,1.407575E3,1.4473512E1,6.5790283E2,2.9030988E0,7.4922247E0,1.7360464E2,1.2161276E0,2.5420296E1,4.821884E1,1.9072441E1,1.8135213E0,4.4176602E2,6.837738E2,3.2580896E2,1.081766E3,3.9389954E0,1.0534516E1,2.8047607E2,3.7742676E2,1.6995736E0,1.2035252E0,2.5237632E0,4.9684615E0,1.7202567E2,1.5789757E0,9.015604E0,1.640469E1,3.8371227E1,9.847617E0,1.6237793E1,2.834649E0,3.3357403E1,4.0840863E2,4.689675E2,2.1480632E2,1.17272835E2,2.0853612E2,3.5818958E2,7.235764E2,1.6451261E0,2.2938693E0,8.601609E0,1.9329075E0,2.6687857E2,1.3597516E1,1.9197205E2,1.8545471E2,1.1538106E0,1.3699524E0,3.7508676E0,1.2175939E0,1.5299109E2,1.9034573E1,7.8790975E0,1.136507E0,1.2972691E1,3.4320002E0,2.0591051E1,1.7780174E1,6.9439297E0,2.9036875E0,4.2796545E0,1.19581375E1,1.2226839E0,1.6119652E0,2.5157906E1,8.199498E0,3.6909613E2,3.9312492E1,4.6501343E2,3.9540823E0,2.3880205E1,1.9092612E2,9.727488E1,1.9997957E1,9.026824E1,1.18267876E2,2.656068E2,9.2582756E1,2.6284098E1,6.972923E2,1.0079089E0,1.2859602E0,7.430247E0,1.1713623E0,9.730757E1,1.69571E2,1.2208876E1,1.388641E0,5.8498257E1,1.334738E2,9.71755E1,8.827922E1],"tree_param":{"num_deleted":"0","num_feature":"15","num_nodes":"105","size_leaf_vector":"1"}},{"base_weights":[-4.012145E-2,3.1778928E-2,-3.7080297E-1,4.693182E-1,-1.5979977E-2,3.9578325E-1,-3.923733E-1,5.9890956E-1,3.055402E-1,-1.0432562E-1,2.0838448E-1,-3.6808327E-1,6.419244E-1,-2.7320704E-1,-4.8561013E-1,7.87501E-1,4.3185818E-1,5.6099546E-1,1.5749253E-1,1.6592455E-1,-1.8386456E-1,2.9873022E-1,-1.1378083E-1,4.7568185E-3,-1.7303015E-1,-2.044028E-1,8.255034E-1,-3.1810397E-1,1.066914E-1,-3.4725565E-1,-5.714631E-1,-2.0550974E-1,8.5637766E-1,4.980084E-1,-2.3984991E-1,6.4664394E-1,-3.2215026E-1,-3.75348E-1,3.8308954E-1,-4.473945E-2,2.98083E-1,1.954737E-1,-2.4259956E-1,-2.4797013E-1,3.5120773E-1,3.7025294E-1,-2.3310785E-1,1.0786335E0,-1.4317158E-1,-2.663292E-1,-7.29762E-1,8.3727473E-1,-9.74054E-2,-2.2416411E-1,-6.718033E-1,-4.5649433E-1,-7.727425E-1,1.9615011E-1,-1.7055956E-1,2.999383E-1,1.6732545E-1,1.0458584E-1,2.3330225E-1,9.896419E-2,-4.1827035E-1,-5.1419225E-2,2.525928E-1,2.6928633E-1,-1.9476828E-1,2.4085636E-1,1.4498186E-2,1.5390238E-1,-4.4855867E-2,-7.0211634E-2,1.0989184E-1,3.1901512E-1,3.1099038E-2,-8.3592385E-2,1.3231112E-1,7.950944E-3,-1.7151481E-1,2.3276891E-1,8.384511E-2,3.645435E-1,3.1615954E-2,-2.8805632E-2,-1.7927268E-1,3.8910058E-1,-6.452728E-2,2.1370517E-1,-2.4834691E-1,-1.2279932E-1,-2.1490943E-2,-2.5700828E-1,3.7310984E-2,4.7787637E-1,-1.3057204E-1,1.1995006E-1,-1.5836735E-1,1.3848287E-1,-9.348784E-2,4.2765945E-2,-2.1378057E-1,-2.2243492E-1,-1.0780201E-1,-2.4036281E-1,-6.4765595E-2],"categories":[2,0,1,3,1,2,5,6,8,11,0,1,2,3,6,9,1,1,6,8,9,10,1,2,3,4,5,8,9,1,6,10,11,5,8,0,0,1,0,3,7,11,2,3,4,5,6,7,10,0,1,2,3,4,5,6,0,1,2,5,6,8,9,3,4,5,7,8,10,0,1,2,3,4,5,6,8,9,11,0,0,2,3,4,5,6,7,8,10,11,0,3,4,5,11,0,1,4,5,6,7,8,9,10,0,1,2,3,4,5,7,8,9,10,11,4,7,9,10,11,0,4,0,1,2,3,5,6,7,8,10,11],"categories_nodes":[0,1,2,3,6,7,9,10,14,19,21,26,29,30,34,37,38,39,40,41,43,44,45,46,51,52],"categories_segments":[0,1,4,10,16,17,22,29,33,35,36,37,38,42,49,56,63,69,79,80,90,95,104,115,120,122],"categories_sizes":[1,3,6,6,1,5,7,4,2,1,1,1,4,7,7,7,6,10,1,10,5,9,11,5,2,10],"default_left":[1,1,1,1,0,0,1,1,0,1,1,0,0,0,1,0,0,0,0,1,0,1,0,0,0,0,1,0,0,1,1,0,0,0,1,0,0,1,1,1,1,1,0,1,1,1,1,0,0,0,0,1,1,0,0,0,0,0,0,0,0,0,0,0,0,0,0,0,0,0,0,0,0,0,0,0,0,0,0,0,0,0,0,0,0,0,0,0,0,0,0,0,0,0,0,0,0,0,0,0,0,0,0,0,0,0,0],"id":4,"left_children":[1,3,5,7,9,11,13,15,17,19,21,23,25,27,29,31,33,35,37,39,41,43,45,-1,-1,-1,47,49,51,53,55,57,59,61,63,65,-1,67,69,71,73,75,77,79,81,83,85,87,89,91,93,95,97,99,101,103,105,-1,-1,-1,-1,-1,-1,-1,-1,-1,-1,-1,-1,-1,-1,-1,-1,-1,-1,-1,-1,-1,-1,-1,-1,-1,-1,-1,-1,-1,-1,-1,-1,-1,-1,-1,-1,-1,-1,-1,-1,-1,-1,-1,-1,-1,-1,-1,-1,-1,-1],"loss_changes":[8.004277E1,5.780231E1,1.0097176E1,5.5946007E0,4.9467995E1,3.4237177E0,6.370323E0,4.4148216E0,4.5365696E0,3.851748E1,2.0556448E1,3.9108533E-1,3.7655864E0,4.455042E0,3.6867142E0,4.9417152E0,3.774065E0,6.9222755E0,9.617429E0,1.1363111E1,3.0879314E1,1.5893246E1,9.047411E0,0E0,0E0,0E0,3.1045628E0,4.7517033E0,4.2781897E0,4.954709E0,4.282112E0,2.0332382E0,2.2413025E0,2.870676E0,5.7534575E0,6.9974194E0,0E0,8.931775E0,7.811222E0,9.311773E0,9.184689E0,1.4717916E1,2.9658714E1,4.3549466E0,1.5107796E1,6.8249207E0,6.1920953E0,3.0068836E0,2.56683E0,5.753646E0,2.8550606E0,6.7029986E0,5.111786E0,5.7911863E0,1.252491E0,3.330349E0,9.5838165E-1,0E0,0E0,0E0,0E0,0E0,0E0,0E0,0E0,0E0,0E0,0E0,0E0,0E0,0E0,0E0,0E0,0E0,0E0,0E0,0E0,0E0,0E0,0E0,0E0,0E0,0E0,0E0,0E0,0E0,0E0,0E0,0E0,0E0,0E0,0E0,0E0,0E0,0E0,0E0,0E0,0E0,0E0,0E0,0E0,0E0,0E0,0E0,0E0,0E0,0E0],"parents":[2147483647,0,0,1,1,2,2,3,3,4,4,5,5,6,6,7,7,8,8,9,9,10,10,11,11,12,12,13,13,14,14,15,15,16,16,17,17,18,18,19,19,20,20,21,21,22,22,26,26,27,27,28,28,29,29,30,30,31,31,32,32,33,33,34,34,35,35,37,37,38,38,39,39,40,40,41,41,42,42,43,43,44,44,45,45,46,46,47,47,48,48,49,49,50,50,51,51,52,52,53,53,54,54,55,55,56,56],"right_children":[2,4,6,8,10,12,14,16,18,20,22,24,26,28,30,32,34,36,38,40,42,44,46,-1,-1,-1,48,50,52,54,56,58,60,62,64,66,-1,68,70,72,74,76,78,80,82,84,86,88,90,92,94,96,98,100,102,104,106,-1,-1,-1,-1,-1,-1,-1,-1,-1,-1,-1,-1,-1,-1,-1,-1,-1,-1,-1,-1,-1,-1,-1,-1,-1,-1,-1,-1,-1,-1,-1,-1,-1,-1,-1,-1,-1,-1,-1,-1,-1,-1,-1,-1,-1,-1,-1,-1,-1,-1],"split_conditions":[1E-45,1E-45,1E-45,1E-45,1.501E3,2.88E2,1E-45,1E-45,9.9E1,1E-45,1E-45,1.4E1,3E1,3.165E3,1E-45,8.6E1,6.9E1,5E0,1.79E2,1E-45,3E1,1E-45,3.3E1,4.7568185E-3,-1.7303015E-1,-2.044028E-1,1E-45,1.625E3,3.761E3,1E-45,1E-45,4.1E1,1.85E2,1.79E2,1E-45,8E1,-3.2215026E-1,1E-45,1E-45,1E-45,1E-45,1E-45,6E1,1E-45,1E-45,1E-45,1E-45,7.608E3,1.8E1,2.94E2,2.9E1,1E-45,1E-45,3.3E1,2.8E1,4.4E1,7E0,1.9615011E-1,-1.7055956E-1,2.999383E-1,1.6732545E-1,1.0458584E-1,2.3330225E-1,9.896419E-2,-4.1827035E-1,-5.1419225E-2,2.525928E-1,2.6928633E-1,-1.9476828E-1,2.4085636E-1,1.4498186E-2,1.5390238E-1,-4.4855867E-2,-7.0211634E-2,1.0989184E-1,3.1901512E-1,3.1099038E-2,-8.3592385E-2,1.3231112E-1,7.950944E-3,-1.7151481E-1,2.3276891E-1,8.384511E-2,3.645435E-1,3.1615954E-2,-2.8805632E-2,-1.7927268E-1,3.8910058E-1,-6.452728E-2,2.1370517E-1,-2.4834691E-1,-1.2279932E-1,-2.1490943E-2,-2.5700828E-1,3.7310984E-2,4.7787637E-1,-1.3057204E-1,1.1995006E-1,-1.5836735E-1,1.3848287E-1,-9.348784E-2,4.2765945E-2,-2.1378057E-1,-2.2243492E-1,-1.0780201E-1,-2.4036281E-1,-6.4765595E-2],"split_indices":[8,14,10,1,5,5,2,10,12,10,1,9,0,5,10,12,0,11,12,6,0,7,0,0,0,0,1,5,5,1,1,12,12,12,10,12,0,10,10,10,8,10,0,10,10,1,10,5,9,5,9,1,1,0,0,5,11,0,0,0,0,0,0,0,0,0,0,0,0,0,0,0,0,0,0,0,0,0,0,0,0,0,0,0,0,0,0,0,0,0,0,0,0,0,0,0,0,0,0,0,0,0,0,0,0,0,0],"split_type":[1,1,1,1,0,0,1,1,0,1,1,0,0,0,1,0,0,0,0,1,0,1,0,0,0,0,1,0,0,1,1,0,0,0,1,0,0,1,1,1,1,1,0,1,1,1,1,0,0,0,0,1,1,0,0,0,0,0,0,0,0,0,0,0,0,0,0,0,0,0,0,0,0,0,0,0,0,0,0,0,0,0,0,0,0,0,0,0,0,0,0,0,0,0,0,0,0,0,0,0,0,0,0,0,0,0,0],"sum_hessian":[3.365023E3,2.7647786E3,6.002444E2,2.7121722E2,2.4935613E3,1.5952736E1,5.842916E2,1.4992802E2,1.2128921E2,1.7894739E3,7.040874E2,3.766984E0,1.2185752E1,2.582069E2,3.2608472E2,6.867912E1,8.12489E1,4.347834E1,7.781087E1,4.066635E2,1.3828104E3,5.4993915E2,1.5414827E2,1.6518703E0,2.1151137E0,1.1542547E0,1.1031497E1,2.3106232E2,2.714461E1,1.2679531E2,1.9928941E2,4.3260336E0,6.4353096E1,7.420021E1,7.0486884E0,4.188828E1,1.5900625E0,2.2947372E1,5.48635E1,1.5702426E2,2.4963925E2,1.8508917E2,1.1977212E3,4.7838795E1,5.0210034E2,3.0070114E1,1.24078156E2,8.656026E0,2.375471E0,2.0671097E2,2.4351341E1,5.249871E0,2.189474E1,9.3155014E1,3.3640297E1,1.2891972E2,7.036969E1,1.0468507E0,3.279183E0,4.188815E1,2.2464943E1,4.982941E1,2.43708E1,5.1976814E0,1.8510071E0,8.097765E0,3.3790512E1,3.659747E0,1.9287626E1,2.3720995E1,3.1142504E1,2.4217546E1,1.3280672E2,2.8092772E1,2.2154648E2,1.6693935E1,1.6839523E2,1.1383016E3,5.9419525E1,2.6386408E1,2.1452387E1,7.112734E1,4.30973E2,6.320552E0,2.3749563E1,9.1082344E1,3.299581E1,7.4038014E0,1.2522246E0,1.0379808E0,1.3374903E0,1.185405E2,8.817048E1,2.11981E1,3.153242E0,3.1359105E0,2.1139603E0,1.0192706E1,1.1702032E1,1.0053048E1,8.310196E1,1.4859527E0,3.2154346E1,3.1092672E1,9.782706E1,6.652984E1,3.8398476E0],"tree_param":{"num_deleted":"0","num_feature":"15","num_nodes":"107","size_leaf_vector":"1"}},{"base_weights":[-3.2405145E-2,2.097449E-2,-2.982362E-1,1.5519351E-1,-7.9822145E-2,3.826405E-1,-3.042737E-1,1.9327144E-1,-1.8886016E-1,3.341414E-1,-1.2319992E-1,-8.68415E-2,-3.480203E-1,-9.783325E-2,2.3150536E-1,2.571343E-2,-5.727432E-1,6.1521757E-1,2.0139071E-1,-2.44794E-1,1.6493898E-2,4.0025884E-1,-3.220741E-1,2.6936355E-1,-3.6441085E-1,2.2566444E-1,-2.5725365E-1,2.4799243E-2,2.9042107E-1,3.25221E-1,-3.029779E-1,1.4273708E-1,-6.968049E-1,2.6844395E-2,7.737446E-1,4.029234E-1,-1.8147027E-2,-2.6004085E-1,1.1152233E0,2.2143005E-1,-9.313234E-2,8.399779E-1,-3.180324E-1,-7.1047086E-1,-6.2003724E-2,-1.2753396E-1,7.608707E-1,-4.0328565E-1,-1.7039968E-1,1.4084257E-1,-1.222394E-1,1.2218707E-1,-1.0633112E-1,8.22058E-2,-4.3584887E-2,2.042379E-1,7.4399255E-2,1.5363277E-1,-1.7064793E-1,2.1782942E-1,-1.2394043E-1,4.601028E-1,-2.1356323E-1,3.705164E-2,-2.2864212E-1,1.6512778E-1,-2.1565051E-1,3.136177E-1,1.1023466E-1,-1.0919403E-1,1.7098966E-1,6.132746E-2,-8.4219255E-2,-1.231497E-2,-9.5626675E-2,4.0941602E-1,2.8741302E-2,7.6567575E-2,-1.9987153E-1,2.3295883E-2,-6.705805E-2,5.028151E-2,3.853235E-1,-2.4203438E-1,9.632284E-2,-1.3818428E-1,-2.755917E-1,-1.4903851E-1,7.073067E-2,1.1664598E-1,-1.7901736E-1,-4.525453E-2,2.9878289E-1,-1.5183115E-1,-8.202523E-2,1.1618395E-2,-1.490138E-1],"categories":[2,1,1,2,3,4,5,6,7,8,9,10,11,0,1,3,0,3,8,9,0,1,6,7,8,9,10,0,1,2,3,4,8,11,0,2,5,6,8,9,11,0,2,3,4,8,9,11,1,3,1,2,3,5,8,9,0,1,4,5,9,11,0,0,2,4,6,9,3,4,5,8,9,0,1,2,3,4,6,7,8,9,10,11,1,2,3,4,5,6,7,8,9,10,11,0,1,2,3,4,5,6,7,9,0,2,3,4,6,8,11,0,6,7,8,1,3,4,5,8,9,2,0,4,8,9,10,0,2,3,9],"categories_nodes":[0,1,2,4,7,8,9,11,12,13,15,18,20,24,25,27,28,30,31,34,36,37,41,43,45,48],"categories_segments":[0,1,2,13,16,17,20,27,34,41,48,50,56,62,63,68,73,84,95,104,111,115,121,122,126,127],"categories_sizes":[1,1,11,3,1,3,7,7,7,7,2,6,6,1,5,5,11,11,9,7,4,6,1,4,1,4],"default_left":[1,1,1,0,1,0,0,1,1,1,0,1,1,1,0,1,0,0,1,0,1,0,0,0,1,1,0,1,1,0,1,1,0,0,1,0,1,1,0,0,0,1,0,1,0,1,0,0,1,0,0,0,0,0,0,0,0,0,0,0,0,0,0,0,0,0,0,0,0,0,0,0,0,0,0,0,0,0,0,0,0,0,0,0,0,0,0,0,0,0,0,0,0,0,0,0,0],"id":5,"left_children":[1,3,5,7,9,-1,11,13,15,17,19,21,23,25,27,29,31,33,35,37,39,41,43,45,47,49,51,53,55,57,59,61,63,65,67,69,71,73,75,77,79,81,83,85,87,89,91,93,95,-1,-1,-1,-1,-1,-1,-1,-1,-1,-1,-1,-1,-1,-1,-1,-1,-1,-1,-1,-1,-1,-1,-1,-1,-1,-1,-1,-1,-1,-1,-1,-1,-1,-1,-1,-1,-1,-1,-1,-1,-1,-1,-1,-1,-1,-1,-1,-1],"loss_changes":[4.6323555E1,3.6799828E1,5.5748215E0,1.5319719E1,2.7939016E1,0E0,5.150158E0,1.1718472E1,9.631651E0,5.3844585E0,2.390296E1,1.0733997E1,4.68285E0,6.3858013E0,1.1308006E1,7.5653944E0,3.8189669E0,4.3509235E0,4.5093946E0,1.5889393E1,1.4751744E1,9.92791E0,6.3163486E0,2.4949527E0,3.2632065E0,6.5259686E0,5.482743E0,8.821649E0,1.18040085E1,7.0028343E0,4.45798E0,9.439182E0,2.0172005E0,4.6840453E0,3.686945E0,7.0093927E0,2.9596596E0,9.562992E0,2.0386086E0,7.0340633E0,9.54618E0,5.5362473E0,4.113546E0,8.85376E-1,5.1418023E0,2.0870686E0,1.3579466E0,4.766083E0,5.1697536E0,0E0,0E0,0E0,0E0,0E0,0E0,0E0,0E0,0E0,0E0,0E0,0E0,0E0,0E0,0E0,0E0,0E0,0E0,0E0,0E0,0E0,0E0,0E0,0E0,0E0,0E0,0E0,0E0,0E0,0E0,0E0,0E0,0E0,0E0,0E0,0E0,0E0,0E0,0E0,0E0,0E0,0E0,0E0,0E0,0E0,0E0,0E0,0E0],"parents":[2147483647,0,0,1,1,2,2,3,3,4,4,6,6,7,7,8,8,9,9,10,10,11,11,12,12,13,13,14,14,15,15,16,16,17,17,18,18,19,19,20,20,21,21,22,22,23,23,24,24,25,25,26,26,27,27,28,28,29,29,30,30,31,31,32,32,33,33,34,34,35,35,36,36,37,37,38,38,39,39,40,40,41,41,42,42,43,43,44,44,45,45,46,46,47,47,48,48],"right_children":[2,4,6,8,10,-1,12,14,16,18,20,22,24,26,28,30,32,34,36,38,40,42,44,46,48,50,52,54,56,58,60,62,64,66,68,70,72,74,76,78,80,82,84,86,88,90,92,94,96,-1,-1,-1,-1,-1,-1,-1,-1,-1,-1,-1,-1,-1,-1,-1,-1,-1,-1,-1,-1,-1,-1,-1,-1,-1,-1,-1,-1,-1,-1,-1,-1,-1,-1,-1,-1,-1,-1,-1,-1,-1,-1,-1,-1,-1,-1,-1,-1],"split_conditions":[1E-45,1E-45,1E-45,5E0,1E-45,3.826405E-1,3.1E1,1E-45,1E-45,1E-45,7.49E2,1E-45,1E-45,1E-45,1.27E2,1E-45,5E0,7E0,1E-45,3.74E2,1E-45,5.49E2,1.6E1,2.2E1,1E-45,1E-45,-2.6E1,1E-45,1E-45,1.2E1,1E-45,1E-45,2.6E1,1.355E3,1E-45,3.4E1,1E-45,1E-45,2.6E1,1.2392E4,1.7E1,1E-45,6E0,1E-45,2.33E2,1E-45,2.64E2,5.97E2,1E-45,1.4084257E-1,-1.222394E-1,1.2218707E-1,-1.0633112E-1,8.22058E-2,-4.3584887E-2,2.042379E-1,7.4399255E-2,1.5363277E-1,-1.7064793E-1,2.1782942E-1,-1.2394043E-1,4.601028E-1,-2.1356323E-1,3.705164E-2,-2.2864212E-1,1.6512778E-1,-2.1565051E-1,3.136177E-1,1.1023466E-1,-1.0919403E-1,1.7098966E-1,6.132746E-2,-8.4219255E-2,-1.231497E-2,-9.5626675E-2,4.0941602E-1,2.8741302E-2,7.6567575E-2,-1.9987153E-1,2.3295883E-2,-6.705805E-2,5.028151E-2,3.853235E-1,-2.4203438E-1,9.632284E-2,-1.3818428E-1,-2.755917E-1,-1.4903851E-1,7.073067E-2,1.1664598E-1,-1.7901736E-1,-4.525453E-2,2.9878289E-1,-1.5183115E-1,-8.202523E-2,1.1618395E-2,-1.490138E-1],"split_indices":[8,2,10,11,14,0,0,7,10,10,5,10,10,1,5,3,9,9,1,12,10,5,9,9,2,10,5,10,10,11,10,10,0,5,1,0,10,10,9,5,9,2,9,1,5,10,5,5,1,0,0,0,0,0,0,0,0,0,0,0,0,0,0,0,0,0,0,0,0,0,0,0,0,0,0,0,0,0,0,0,0,0,0,0,0,0,0,0,0,0,0,0,0,0,0,0,0],"split_type":[1,1,1,0,1,0,0,1,1,1,0,1,1,1,0,1,0,0,1,0,1,0,0,0,1,1,0,1,1,0,1,1,0,0,1,0,1,1,0,0,0,1,0,1,0,1,0,0,1,0,0,0,0,0,0,0,0,0,0,0,0,0,0,0,0,0,0,0,0,0,0,0,0,0,0,0,0,0,0,0,0,0,0,0,0,0,0,0,0,0,0,0,0,0,0,0,0],"sum_hessian":[3.2630889E3,2.7181897E3,5.4489923E2,1.1655818E3,1.5526078E3,1.2789433E0,5.4362024E2,1.0498307E3,1.1575111E2,1.4662552E2,1.4059823E3,9.155464E1,4.520656E2,1.2169707E2,9.281336E2,7.484762E1,4.090349E1,4.586984E1,1.0075569E2,7.5128595E2,6.5469635E2,2.9586924E1,6.196772E1,1.129209E1,4.4077353E2,4.0037327E1,8.165974E1,2.0617795E2,7.219556E2,3.9167904E1,3.5679714E1,6.0221906E0,3.4881298E1,9.983904E0,3.5885933E1,5.2096485E1,4.8659203E1,7.4375665E2,7.529297E0,2.2780882E2,4.2688748E2,1.8247108E1,1.1339814E1,2.415784E1,3.780988E1,6.6570067E0,4.635083E0,3.662982E2,7.447533E1,2.9092587E1,1.094474E1,1.0011281E1,7.164846E1,8.3384384E1,1.22793564E2,6.929269E1,6.5266296E2,3.2749313E1,6.41859E0,2.909347E0,3.277037E1,1.9895275E0,4.0326633E0,2.5075688E0,3.237373E1,6.019286E0,3.964618E0,2.0563965E1,1.5321968E1,9.106923E0,4.2989563E1,2.6455996E1,2.2203205E1,1.576101E2,5.8614655E2,5.7767487E0,1.7525486E0,2.2014015E2,7.668672E0,1.8499423E2,2.4189326E2,7.8094707E0,1.0437638E1,6.277123E0,5.0626907E0,1.2439663E1,1.1718178E1,1.5097282E1,2.2712597E1,3.250767E0,3.40624E0,1.0235543E0,3.611529E0,2.028235E2,1.634747E2,4.5924515E1,2.8550814E1],"tree_param":{"num_deleted":"0","num_feature":"15","num_nodes":"97","size_leaf_vector":"1"}},{"base_weights":[-2.6232842E-2,-1.3121599E-1,6.21447E-2,-1.4653689E-1,7.850419E-1,-2.1951471E-1,1.1922958E-1,-5.1570073E-2,-2.3224357E-1,1.0314957E0,-3.8044286E-1,4.07987E-1,-2.6971903E-1,2.3939797E-1,2.616766E-2,-9.968069E-2,3.1848893E-1,-1.6583428E-1,-4.6405223E-1,1.1270754E0,-8.135647E-2,1.3145939E-1,-2.3270823E-1,1.0840802E0,-4.250341E-2,-1.9286951E-1,-6.0487837E-1,3.4110507E-1,6.0040083E-2,2.6176447E-1,-2.5035698E-2,2.3323728E-1,-1.3136499E-1,9.72469E-1,4.9459457E-2,-5.3471927E-2,-2.8170103E-1,-4.802894E-1,2.139438E-1,1.2667418E0,1.3120128E-1,-5.152851E-2,1.103787E-1,1.4777435E0,2.6102784E-1,4.153109E-1,-4.5537505E-1,5.8007468E-2,-3.0727792E-1,2.3150827E-1,-6.990763E-1,5.7080094E-2,4.1813898E-1,1.9231044E-1,-1.1663056E-1,8.282516E-1,1.4169791E-1,1.2419689E-1,-1.1670967E-1,3.767906E-2,3.0759603E-1,3.0047929E-2,-5.4276835E-2,5.466884E-1,1.1911885E-1,8.6836495E-2,-9.640812E-2,1.0389527E-2,-9.106141E-2,-6.842949E-2,-1.9922091E-1,-1.20190844E-1,-2.415799E-1,4.144992E-1,1.1808339E-1,2.7524352E-1,-2.4003361E-1,4.3575652E-2,5.5207866E-1,3.3709732E-1,-2.3880859E-1,2.572563E-1,-2.2817469E-1,8.321218E-2,-2.4323446E-1,5.720543E-2,-1.8602175E-1,-1.2943651E-1,-2.6534889E-2,-1.4794916E-1,2.6653716E-1,-1.1841672E-1,-2.576657E-1,9.2209905E-2,-5.2495655E-2,1.469555E-1,-2.299975E-2,1.665223E-1,-2.1749608E-2,3.0118325E-1,-4.938221E-2,2.981392E-1,-2.224384E-1,1.6805181E-2,1.3887341E-1,1.06879525E-1,-2.5821777E-2,-1.3774689E-2,-1.1649773E-1],"categories":[0,4,8,9,0,3,6,0,1,3,0,3,2,4,6,9,11,0,1,3,5,6,0,3,4,7,8,9,10,11,1,0,1,2,3,4,5,1,2,3,4,8,0,4,6,9,10,11,1,3,4,5,6,7,8,10,11,0,1,3,1,1,2,3,0,0,0,1,2,3,4,5,6,7,8,9,0,1,2,3,4,0,2,3,4,5,6,7,9,4,8,10,1,4,6,8,9,10,11,1,3,1,2,3,0,2,3,1,4,8,9],"categories_nodes":[0,3,5,9,11,12,13,15,16,17,21,24,25,29,30,31,33,37,39,43,44,46,47,50,51,52,53,57],"categories_segments":[0,1,4,6,7,10,12,17,22,30,31,37,42,48,57,60,61,64,65,66,76,81,89,92,99,101,104,107],"categories_sizes":[1,3,2,1,3,2,5,5,8,1,6,5,6,9,3,1,3,1,1,10,5,8,3,7,2,3,3,4],"default_left":[1,0,0,1,0,1,0,0,0,1,0,1,1,1,0,1,1,1,0,0,0,1,0,0,1,1,0,0,0,1,1,1,0,1,0,0,0,1,0,1,0,0,0,1,1,0,1,1,0,0,1,1,1,1,0,0,0,1,0,0,0,0,0,0,0,0,0,0,0,0,0,0,0,0,0,0,0,0,0,0,0,0,0,0,0,0,0,0,0,0,0,0,0,0,0,0,0,0,0,0,0,0,0,0,0,0,0,0,0],"id":6,"left_children":[1,3,5,7,9,11,13,15,17,19,21,23,25,27,29,31,33,35,37,39,-1,41,-1,43,45,47,49,51,53,55,57,59,61,63,65,67,69,71,-1,73,75,-1,-1,77,79,81,83,85,87,89,91,93,95,97,99,101,103,105,107,-1,-1,-1,-1,-1,-1,-1,-1,-1,-1,-1,-1,-1,-1,-1,-1,-1,-1,-1,-1,-1,-1,-1,-1,-1,-1,-1,-1,-1,-1,-1,-1,-1,-1,-1,-1,-1,-1,-1,-1,-1,-1,-1,-1,-1,-1,-1,-1,-1,-1],"loss_changes":[2.9678768E1,2.0637812E1,2.7953636E1,1.1698469E1,7.343832E0,9.34241E0,1.615203E1,1.2205827E1,1.1560516E1,2.8264923E0,1.1044791E0,6.779539E0,6.887974E0,1.1480728E1,9.843057E0,6.4216623E0,1.3835149E1,7.655449E0,3.549656E0,2.484312E0,0E0,2.7930197E-1,0E0,2.4908066E0,2.8788152E0,6.4097137E0,4.1214275E0,8.7743225E0,5.382213E0,9.790146E0,9.19072E0,4.3910465E0,6.3731585E0,1.0496922E1,5.162447E0,6.627645E0,5.788885E0,3.977005E0,0E0,1.1215057E0,3.267263E0,0E0,0E0,2.5300903E0,4.621182E0,4.432891E0,2.297638E0,6.4689174E0,4.1222343E0,3.2177129E0,1.8700981E0,5.10423E0,1.1256344E1,1.267638E1,5.4780593E0,7.302925E0,3.31511E0,1.2509299E1,7.9816194E0,0E0,0E0,0E0,0E0,0E0,0E0,0E0,0E0,0E0,0E0,0E0,0E0,0E0,0E0,0E0,0E0,0E0,0E0,0E0,0E0,0E0,0E0,0E0,0E0,0E0,0E0,0E0,0E0,0E0,0E0,0E0,0E0,0E0,0E0,0E0,0E0,0E0,0E0,0E0,0E0,0E0,0E0,0E0,0E0,0E0,0E0,0E0,0E0,0E0,0E0],"parents":[2147483647,0,0,1,1,2,2,3,3,4,4,5,5,6,6,7,7,8,8,9,9,10,10,11,11,12,12,13,13,14,14,15,15,16,16,17,17,18,18,19,19,21,21,23,23,24,24,25,25,26,26,27,27,28,28,29,29,30,30,31,31,32,32,33,33,34,34,35,35,36,36,37,37,39,39,40,40,43,43,44,44,45,45,46,46,47,47,48,48,49,49,50,50,51,51,52,52,53,53,54,54,55,55,56,56,57,57,58,58],"right_children":[2,4,6,8,10,12,14,16,18,20,22,24,26,28,30,32,34,36,38,40,-1,42,-1,44,46,48,50,52,54,56,58,60,62,64,66,68,70,72,-1,74,76,-1,-1,78,80,82,84,86,88,90,92,94,96,98,100,102,104,106,108,-1,-1,-1,-1,-1,-1,-1,-1,-1,-1,-1,-1,-1,-1,-1,-1,-1,-1,-1,-1,-1,-1,-1,-1,-1,-1,-1,-1,-1,-1,-1,-1,-1,-1,-1,-1,-1,-1,-1,-1,-1,-1,-1,-1,-1,-1,-1,-1,-1,-1],"split_conditions":[1E-45,6E1,6.4E1,1E-45,4E0,1E-45,2E0,3E0,4.6E1,1E-45,6E0,1E-45,1E-45,1E-45,3.1E1,1E-45,1E-45,1E-45,3.71E2,4.692E3,-8.135647E-2,1E-45,-2.3270823E-1,4.7E1,1E-45,1E-45,3.1E1,6E0,1.7E1,1E-45,1E-45,1E-45,3.1E1,1E-45,1.7E1,9.9E1,2.7E1,1E-45,2.139438E-1,1E-45,1.3E1,-5.152851E-2,1.103787E-1,1E-45,1E-45,2E0,1E-45,1E-45,4.3E1,3E0,1E-45,1E-45,1E-45,1E-45,2.6E1,6E0,2.445E3,1E-45,5E0,3.767906E-2,3.0759603E-1,3.0047929E-2,-5.4276835E-2,5.466884E-1,1.1911885E-1,8.6836495E-2,-9.640812E-2,1.0389527E-2,-9.106141E-2,-6.842949E-2,-1.9922091E-1,-1.20190844E-1,-2.415799E-1,4.144992E-1,1.1808339E-1,2.7524352E-1,-2.4003361E-1,4.3575652E-2,5.5207866E-1,3.3709732E-1,-2.3880859E-1,2.572563E-1,-2.2817469E-1,8.321218E-2,-2.4323446E-1,5.720543E-2,-1.8602175E-1,-1.2943651E-1,-2.6534889E-2,-1.4794916E-1,2.6653716E-1,-1.1841672E-1,-2.576657E-1,9.2209905E-2,-5.2495655E-2,1.469555E-1,-2.299975E-2,1.665223E-1,-2.1749608E-2,3.0118325E-1,-4.938221E-2,2.981392E-1,-2.224384E-1,1.6805181E-2,1.3887341E-1,1.06879525E-1,-2.5821777E-2,-1.3774689E-2,-1.1649773E-1],"split_indices":[6,0,5,10,11,14,11,13,0,10,11,3,3,10,0,10,10,2,12,5,0,10,0,0,10,1,0,9,9,10,3,8,0,14,9,12,9,14,0,3,9,0,0,10,10,5,1,10,0,5,10,3,1,3,0,11,5,10,11,0,0,0,0,0,0,0,0,0,0,0,0,0,0,0,0,0,0,0,0,0,0,0,0,0,0,0,0,0,0,0,0,0,0,0,0,0,0,0,0,0,0,0,0,0,0,0,0,0,0],"split_type":[1,0,0,1,0,1,0,0,0,1,0,1,1,1,0,1,1,1,0,0,0,1,0,0,1,1,0,0,0,1,1,1,0,1,0,0,0,1,0,1,0,0,0,1,1,0,1,1,0,0,1,1,1,1,0,0,0,1,0,0,0,0,0,0,0,0,0,0,0,0,0,0,0,0,0,0,0,0,0,0,0,0,0,0,0,0,0,0,0,0,0,0,0,0,0,0,0,0,0,0,0,0,0,0,0,0,0,0,0],"sum_hessian":[3.1969011E3,1.4609558E3,1.7359453E3,1.437755E3,2.3200857E1,2.920604E2,1.4438849E3,6.8279236E2,7.549626E2,1.9246048E1,3.9548104E0,2.1107841E1,2.7095255E2,6.2948065E2,8.144042E2,6.0488336E2,7.790902E1,5.881756E2,1.66787E2,1.8056053E1,1.1899941E0,2.013921E0,1.9408895E0,7.8780565E0,1.3229784E1,2.21695E2,4.9257545E1,4.0111926E2,2.283614E2,1.4466403E2,6.697402E2,5.2012165E1,5.528712E2,2.1946016E1,5.5963E1,2.9934537E2,2.888302E2,1.6510175E2,1.6852506E0,1.5596705E1,2.459348E0,1.0023129E0,1.0116081E0,4.791064E0,3.086993E0,6.270646E0,6.959138E0,6.9589905E1,1.5210512E2,4.838517E0,4.441903E1,8.595246E1,3.151668E2,1.3053986E2,9.782153E1,2.4267769E1,1.2039627E2,2.5472623E2,4.1501392E2,4.6809532E1,5.202635E0,9.729693E1,4.5557428E2,7.985357E0,1.396066E1,3.410778E1,2.1855219E1,2.2199371E2,7.735166E1,2.5471875E2,3.4111454E1,1.3439401E2,3.070774E1,1.3267942E1,2.328763E0,1.3415647E0,1.1177833E0,1.3242522E0,3.4668114E0,1.6651286E0,1.4218644E0,4.753703E0,1.516943E0,2.3446605E0,4.6144776E0,5.8802944E1,1.078696E1,9.641911E1,5.5686E1,2.419219E0,2.4192982E0,1.648796E1,2.7931067E1,4.119671E1,4.4755753E1,2.7528012E2,3.988669E1,5.4619755E1,7.5920105E1,3.1981442E0,9.462339E1,2.2284485E1,1.983283E0,9.597124E1,2.4425026E1,1.2075652E2,1.3396971E2,3.3013623E2,8.487769E1],"tree_param":{"num_deleted":"0","num_feature":"15","num_nodes":"109","size_leaf_vector":"1"}},{"base_weights":[-2.0933079E-2,-1.7515041E-1,2.6280763E-2,-3.8606086E-1,-1.2258791E-1,4.894889E-2,-2.8292695E-1,-1.5138908E-1,-5.0286937E-1,-7.2667114E-2,-3.949073E-1,-1.5498072E-1,7.91974E-2,-1.5236263E-1,-7.1702635E-1,3.0539298E-1,-3.9174974E-1,-5.3606045E-1,3.477982E-1,4.46879E-1,-9.627318E-2,3.3097523E-1,-5.095484E-1,2.0039552E-1,-2.2383921E-1,-1.17711976E-1,1.1159921E-1,5.9654843E-2,-4.590426E-1,-8.3018845E-1,1.3902389E-1,8.19584E-1,-2.2291046E-1,4.3926337E-1,-5.520717E-1,-3.6408013E-1,-6.887399E-1,2.5609747E-1,-4.6963964E-2,-3.4654117E-1,5.773739E-1,-3.6545467E-1,-5.6272745E-2,5.147379E-1,2.119014E-2,1.972257E-1,-5.4620796E-1,3.9019293E-1,-4.2001474E-1,3.4685E-1,-2.6422784E-1,1.9592877E-1,-2.2542296E-1,1.5325108E-1,-4.1066725E-2,7.073551E-1,-9.647996E-2,6.9282407E-1,-5.6442785E-1,-4.4563584E-2,-9.276992E-1,-5.7209796E-1,2.5367606E-1,2.4656566E-2,4.2783105E-1,2.1501286E-1,-1.3676485E-1,-6.401426E-2,2.9553503E-1,-2.1843986E-1,8.864766E-5,-1.5387484E-1,1.4120087E-1,-2.1930133E-1,-3.4385998E-2,-2.3312905E-1,8.569366E-2,2.0586479E-1,-1.5414506E-1,5.9560496E-2,-1.5129612E-1,-3.853747E-3,-9.429232E-2,-2.2778688E-1,7.707066E-2,-1.03513345E-1,-2.173701E-1,-6.584511E-3,2.168632E-1,2.5499398E-1,-2.950204E-1,1.9739786E-1,-1.7735946E-1,2.7567106E-1,-8.462231E-2,9.782448E-2,-8.909992E-2,3.4129256E-1,-7.241257E-2,3.8365684E-2,1.45176E-1,1.6274398E-2,-9.1248915E-2,-6.0115334E-2,4.6010852E-1,7.829023E-2,-1.1865025E-1,2.789272E-1,-2.1586984E-2,-1.8485051E-1,2.663409E-1,2.1526057E-1,-1.9571419E-1,-2.157546E-2,-2.8715587E-1,-4.3757387E-2,-2.1044616E-1],"categories":[0,0,1,5,8,9,3,7,8,11,0,0,7,8,9,11,0,1,2,3,4,5,6,7,8,9,11,0,1,4,6,7,8,9,10,11,0,1,2,3,4,5,6,7,9,10,11,1,0,1,3,4,5,6,8,9,10,11,0,3,4,6,8,9,10,8,0,1,4,5,6,8,9,1,2,3,6,0,3,4,5,6,7,9,10,11,0,1,2,4,5,7,9,10,0,1,3,0,1,2,4,5,9,8,9,10,11,0,7,0,1,3],"categories_nodes":[0,3,4,5,6,9,10,11,15,16,17,18,20,25,26,27,28,32,35,41,46,51,59],"categories_segments":[0,1,6,10,11,16,27,36,47,48,58,65,66,67,73,77,86,94,97,98,103,107,109],"categories_sizes":[1,5,4,1,5,11,9,11,1,10,7,1,1,6,4,9,8,3,1,5,4,2,3],"default_left":[1,0,0,1,1,1,1,0,0,1,1,1,0,0,0,1,1,1,1,0,1,0,0,0,0,1,1,1,1,0,0,0,1,0,0,1,0,0,0,0,0,1,0,0,0,0,1,0,0,0,0,1,0,0,0,0,0,0,0,1,0,0,0,0,0,0,0,0,0,0,0,0,0,0,0,0,0,0,0,0,0,0,0,0,0,0,0,0,0,0,0,0,0,0,0,0,0,0,0,0,0,0,0,0,0,0,0,0,0,0,0,0,0,0,0,0,0],"id":7,"left_children":[1,3,5,7,9,11,13,15,17,19,21,23,25,27,29,31,33,35,37,39,41,43,45,47,49,51,53,55,57,59,61,63,65,67,69,71,73,-1,-1,75,77,79,81,-1,83,-1,85,87,89,91,93,95,97,99,101,103,105,107,109,111,113,115,-1,-1,-1,-1,-1,-1,-1,-1,-1,-1,-1,-1,-1,-1,-1,-1,-1,-1,-1,-1,-1,-1,-1,-1,-1,-1,-1,-1,-1,-1,-1,-1,-1,-1,-1,-1,-1,-1,-1,-1,-1,-1,-1,-1,-1,-1,-1,-1,-1,-1,-1,-1,-1,-1,-1],"loss_changes":[2.2834528E1,8.101515E0,1.6845695E1,3.9308472E0,7.9903736E0,1.3818985E1,9.195613E0,5.6104054E0,2.929922E0,6.1718416E0,7.7544155E0,7.127855E0,1.245321E1,8.316349E0,3.766592E0,5.019272E0,4.6665177E0,2.215168E0,1.2193015E0,2.4671183E0,5.135145E0,5.5575085E0,3.743803E0,5.7581396E0,5.6912565E0,9.3679085E0,1.0656017E1,7.7800827E0,6.730336E0,2.519886E0,3.1252444E0,4.013809E0,2.4212065E0,2.321711E0,2.7503452E0,5.992013E0,1.0961227E0,0E0,0E0,1.2338502E0,2.6303463E0,4.937587E0,4.6806116E0,0E0,2.3416524E0,0E0,2.5218353E0,5.075033E0,9.143422E0,5.2016826E0,5.0617666E0,4.6575437E0,4.7517967E0,1.0976284E1,9.038678E0,1.1507941E1,6.76484E0,9.4144297E-1,4.183489E0,2.664671E0,6.8040466E-1,7.508063E-2,0E0,0E0,0E0,0E0,0E0,0E0,0E0,0E0,0E0,0E0,0E0,0E0,0E0,0E0,0E0,0E0,0E0,0E0,0E0,0E0,0E0,0E0,0E0,0E0,0E0,0E0,0E0,0E0,0E0,0E0,0E0,0E0,0E0,0E0,0E0,0E0,0E0,0E0,0E0,0E0,0E0,0E0,0E0,0E0,0E0,0E0,0E0,0E0,0E0,0E0,0E0,0E0,0E0,0E0,0E0],"parents":[2147483647,0,0,1,1,2,2,3,3,4,4,5,5,6,6,7,7,8,8,9,9,10,10,11,11,12,12,13,13,14,14,15,15,16,16,17,17,18,18,19,19,20,20,21,21,22,22,23,23,24,24,25,25,26,26,27,27,28,28,29,29,30,30,31,31,32,32,33,33,34,34,35,35,36,36,39,39,40,40,41,41,42,42,44,44,46,46,47,47,48,48,49,49,50,50,51,51,52,52,53,53,54,54,55,55,56,56,57,57,58,58,59,59,60,60,61,61],"right_children":[2,4,6,8,10,12,14,16,18,20,22,24,26,28,30,32,34,36,38,40,42,44,46,48,50,52,54,56,58,60,62,64,66,68,70,72,74,-1,-1,76,78,80,82,-1,84,-1,86,88,90,92,94,96,98,100,102,104,106,108,110,112,114,116,-1,-1,-1,-1,-1,-1,-1,-1,-1,-1,-1,-1,-1,-1,-1,-1,-1,-1,-1,-1,-1,-1,-1,-1,-1,-1,-1,-1,-1,-1,-1,-1,-1,-1,-1,-1,-1,-1,-1,-1,-1,-1,-1,-1,-1,-1,-1,-1,-1,-1,-1,-1,-1,-1,-1],"split_conditions":[1E-45,5.1E1,6E0,1E-45,1E-45,1E-45,1E-45,-2.6E1,1.75E2,1E-45,1E-45,1E-45,3.6E1,2.6E1,2.3E1,1E-45,1E-45,1E-45,1E-45,1.3E1,1E-45,1.32E2,6.8E1,1.103E3,2.7E1,1E-45,1E-45,1E-45,1E-45,5E0,3.9E1,6E0,1E-45,4E1,5.4E1,1E-45,3E1,2.5609747E-1,-4.6963964E-2,2E0,1.0788E4,1E-45,5E0,5.147379E-1,3.12E2,1.972257E-1,1E-45,1.2E1,8E0,2.2E1,2E0,1E-45,2.4E1,5E0,1.07E2,4.26E2,3.8E1,1.4E1,8.6E1,1E-45,-3.43E2,2.8E1,2.5367606E-1,2.4656566E-2,4.2783105E-1,2.1501286E-1,-1.3676485E-1,-6.401426E-2,2.9553503E-1,-2.1843986E-1,8.864766E-5,-1.5387484E-1,1.4120087E-1,-2.1930133E-1,-3.4385998E-2,-2.3312905E-1,8.569366E-2,2.0586479E-1,-1.5414506E-1,5.9560496E-2,-1.5129612E-1,-3.853747E-3,-9.429232E-2,-2.2778688E-1,7.707066E-2,-1.03513345E-1,-2.173701E-1,-6.584511E-3,2.168632E-1,2.5499398E-1,-2.950204E-1,1.9739786E-1,-1.7735946E-1,2.7567106E-1,-8.462231E-2,9.782448E-2,-8.909992E-2,3.4129256E-1,-7.241257E-2,3.8365684E-2,1.45176E-1,1.6274398E-2,-9.1248915E-2,-6.0115334E-2,4.6010852E-1,7.829023E-2,-1.1865025E-1,2.789272E-1,-2.1586984E-2,-1.8485051E-1,2.663409E-1,2.1526057E-1,-1.9571419E-1,-2.157546E-2,-2.8715587E-1,-4.3757387E-2,-2.1044616E-1],"split_indices":[8,5,11,10,1,7,10,5,12,10,10,10,5,9,9,2,1,1,10,9,7,5,5,5,0,10,1,1,1,9,0,9,3,0,0,2,9,0,0,12,5,1,11,0,5,0,10,9,9,9,9,1,0,13,12,5,0,11,12,3,5,9,0,0,0,0,0,0,0,0,0,0,0,0,0,0,0,0,0,0,0,0,0,0,0,0,0,0,0,0,0,0,0,0,0,0,0,0,0,0,0,0,0,0,0,0,0,0,0,0,0,0,0,0,0,0,0],"split_type":[1,0,0,1,1,1,1,0,0,1,1,1,0,0,0,1,1,1,1,0,1,0,0,0,0,1,1,1,1,0,0,0,1,0,0,1,0,0,0,0,0,1,0,0,0,0,1,0,0,0,0,1,0,0,0,0,0,0,0,1,0,0,0,0,0,0,0,0,0,0,0,0,0,0,0,0,0,0,0,0,0,0,0,0,0,0,0,0,0,0,0,0,0,0,0,0,0,0,0,0,0,0,0,0,0,0,0,0,0,0,0,0,0,0,0,0,0],"sum_hessian":[3.1344653E3,7.340583E2,2.4004072E3,1.4517784E2,5.8888043E2,2.2372363E3,1.6317091E2,4.901044E1,9.61674E1,4.9872287E2,9.0157585E1,2.8844852E2,1.9487877E3,1.2648034E2,3.669057E1,1.680452E1,3.220592E1,9.291202E1,3.2553742E0,2.0895817E1,4.7782706E2,1.203944E1,7.811815E1,4.6508667E1,2.4193985E2,2.7499283E2,1.6737949E3,7.525777E1,5.122257E1,3.2433384E1,4.257188E0,8.236596E0,8.5679245E0,4.9270678E0,2.7278852E1,4.5285923E1,4.76261E1,1.2794608E0,1.9759133E0,2.717514E0,1.8178303E1,6.0766266E1,4.170608E2,1.3711953E0,1.0668245E1,1.8635489E0,7.62546E1,3.5897797E1,1.06108675E1,1.5489285E1,2.2645056E2,7.00876E1,2.0490523E2,1.3150153E3,3.587797E2,1.3932133E1,6.1325634E1,3.8263333E0,4.7396236E1,3.741982E0,2.86914E1,2.2165973E0,2.0405908E0,4.229705E0,4.006891E0,1.2897513E0,7.278173E0,2.521431E0,2.4056368E0,2.044426E1,6.834593E0,3.876047E1,6.5254526E0,4.4105927E1,3.5201702E0,1.4801952E0,1.237319E0,1.6867016E1,1.3112874E0,1.1920919E1,4.884535E1,3.5787988E2,5.9180897E1,1.9593312E0,8.708914E0,3.721543E1,3.9039165E1,1.645133E1,1.9446466E1,3.1043336E0,7.5065336E0,1.1855474E1,3.6338115E0,2.614784E0,2.2383578E2,5.5715076E1,1.4372522E1,1.5569167E0,2.0334831E2,1.2226156E3,9.23996E1,2.6394965E2,9.483005E1,7.0000443E0,6.9320884E0,2.7991755E1,3.333388E1,2.7566044E0,1.0697287E0,4.6321587E1,1.0746498E0,1.5801864E0,2.1617959E0,1.0702177E0,2.7621183E1,1.0115577E0,1.2050396E0],"tree_param":{"num_deleted":"0","num_feature":"15","num_nodes":"117","size_leaf_vector":"1"}},{"base_weights":[-1.7360939E-2,1.9443336E-1,-3.6124967E-2,3.9500096E-1,1.1967237E-1,3.8127214E-2,-9.7602226E-2,-3.1111538E-3,6.371909E-1,-1.6786993E-1,3.0614758E-1,-1.101587E-1,8.246261E-2,-1.06019355E-1,7.3229516E-1,2.2800572E-1,-3.9789948E-1,8.29426E-2,7.7010125E-1,2.1699122E-1,-4.1621017E-1,6.1330867E-1,1.10465415E-1,-7.327231E-2,-6.209758E-1,1.2989698E-1,-1.1494867E-1,-2.6076648E-1,-7.681229E-2,4.322705E-1,1.999985E-1,5.7723933E-1,-8.576392E-2,5.890217E-1,-9.1779333E-1,5.258157E-1,-4.5061097E-1,9.126995E-1,1.5804142E-1,2.8583273E-1,1.1761284E-1,8.1101365E-2,-6.768304E-1,1.0301094E0,4.3478336E-2,3.814338E-1,-1.2196876E-1,-9.263133E-2,1.2967323E0,5.8896318E-2,-8.581568E-1,1.4394459E-1,-4.423586E-1,6.9597864E-1,-1.8887898E-1,-2.1320735E-1,-7.096483E-1,-5.404817E-2,-3.3266973E-1,-5.543511E-1,8.756128E-1,2.8691483E-1,-6.522685E-2,-1.3079292E-1,2.2429301E-1,2.957414E-1,-7.7744566E-2,-3.8798398E-1,-9.8176114E-2,2.3430197E-1,-5.04603E-2,1.17351145E-1,-2.7175176E-1,7.72725E-2,3.2982236E-1,3.045616E-1,-1.9226344E-1,-4.261267E-1,9.7085185E-2,1.4114906E-1,-1.3328554E-1,-2.3389214E-1,1.4638129E-1,3.2877463E-1,-8.043185E-2,1.6526961E-1,-1.7901859E-1,2.0382148E-1,-7.53535E-2,1.10258155E-1,-1.22474216E-1,-6.8447776E-2,-9.4967545E-5,5.083274E-1,9.444079E-2,1.06361546E-1,-1.8663059E-1,-3.114866E-1,-1.000319E-1,3.2742456E-2,9.262967E-2,-1.8683103E-1,1.4659156E-1,3.3385336E-1,-6.542812E-2,-2.8033998E-2,-2.0226757E-1,-2.3802454E-2,-1.14615545E-1,-5.7996593E-2,-2.594437E-1,-9.054694E-3,-1.12271085E-1,7.3983036E-2,-1.3381304E-1,2.164619E-2,-2.8470716E-1,-1.8377096E-3,4.314111E-1],"categories":[0,1,3,1,0,0,2,3,6,7,8,10,0,1,4,8,9,3,4,11,0,2,3,4,6,7,8,9,10,11,0,2,5,7,10,2,3,4,5,10,1,2,4,9,0,4,5,7,8,9,10,0,2,3,4,6,7,8,9,10,11,0,1,9,2,0,1,5,1,4,0,6,9,4,9,1,2,4,8,10,0,3,5,6,8,9,3,6,1,4,5,6,7,8,9,10,11,10,11],"categories_nodes":[0,2,5,7,9,11,14,18,21,22,24,26,31,35,36,38,41,44,54,55,56,57,58,59],"categories_segments":[0,3,4,5,12,17,20,30,35,40,44,51,61,63,64,65,68,70,73,75,80,86,88,97],"categories_sizes":[3,1,1,7,5,3,10,5,5,4,7,10,2,1,1,3,2,3,2,5,6,2,9,2],"default_left":[1,0,1,0,0,1,0,1,0,1,0,1,0,0,1,0,0,0,1,0,0,1,1,0,1,0,1,0,0,0,0,1,0,0,0,1,1,0,1,0,0,1,0,0,1,0,0,0,0,0,0,0,0,0,1,1,1,1,1,1,0,0,0,0,0,0,0,0,0,0,0,0,0,0,0,0,0,0,0,0,0,0,0,0,0,0,0,0,0,0,0,0,0,0,0,0,0,0,0,0,0,0,0,0,0,0,0,0,0,0,0,0,0,0,0,0,0,0,0],"id":8,"left_children":[1,3,5,7,9,11,13,15,17,19,21,23,25,27,29,31,33,35,37,39,41,43,45,47,49,51,53,55,57,-1,59,61,63,65,67,69,71,73,75,-1,77,79,81,83,85,87,89,91,93,95,97,99,101,103,105,107,109,111,113,115,117,-1,-1,-1,-1,-1,-1,-1,-1,-1,-1,-1,-1,-1,-1,-1,-1,-1,-1,-1,-1,-1,-1,-1,-1,-1,-1,-1,-1,-1,-1,-1,-1,-1,-1,-1,-1,-1,-1,-1,-1,-1,-1,-1,-1,-1,-1,-1,-1,-1,-1,-1,-1,-1,-1,-1,-1,-1,-1],"loss_changes":[1.23111925E1,3.7333508E0,1.2990396E1,6.5611134E0,9.97658E0,8.485405E0,1.0951307E1,2.5292726E0,3.0522747E0,7.1117935E0,6.7025557E0,5.5541496E0,9.314608E0,6.9488316E0,5.6547956E0,1.9663858E0,5.791069E0,2.4351246E0,2.8231258E0,2.0428147E0,5.886613E0,1.0313818E1,4.4568834E0,7.5013285E0,3.2564015E0,6.504322E0,1.1698006E1,5.0660973E0,7.544904E0,0E0,5.662655E0,2.741217E0,3.26948E0,1.6486603E0,1.1496129E0,1.1133848E0,2.177567E0,3.0640354E0,5.8782506E0,0E0,9.047375E0,3.5569756E0,3.928586E0,2.4420013E0,6.6532526E0,6.3110137E0,5.5382004E0,3.445034E0,1.0069442E0,1.4441863E0,1.0529737E0,4.456375E0,3.5698032E0,6.4662604E0,8.162882E0,4.9966936E0,1.6741333E0,9.109645E0,7.0647316E0,1.4066459E0,2.8585968E0,0E0,0E0,0E0,0E0,0E0,0E0,0E0,0E0,0E0,0E0,0E0,0E0,0E0,0E0,0E0,0E0,0E0,0E0,0E0,0E0,0E0,0E0,0E0,0E0,0E0,0E0,0E0,0E0,0E0,0E0,0E0,0E0,0E0,0E0,0E0,0E0,0E0,0E0,0E0,0E0,0E0,0E0,0E0,0E0,0E0,0E0,0E0,0E0,0E0,0E0,0E0,0E0,0E0,0E0,0E0,0E0,0E0,0E0],"parents":[2147483647,0,0,1,1,2,2,3,3,4,4,5,5,6,6,7,7,8,8,9,9,10,10,11,11,12,12,13,13,14,14,15,15,16,16,17,17,18,18,19,19,20,20,21,21,22,22,23,23,24,24,25,25,26,26,27,27,28,28,30,30,31,31,32,32,33,33,34,34,35,35,36,36,37,37,38,38,40,40,41,41,42,42,43,43,44,44,45,45,46,46,47,47,48,48,49,49,50,50,51,51,52,52,53,53,54,54,55,55,56,56,57,57,58,58,59,59,60,60],"right_children":[2,4,6,8,10,12,14,16,18,20,22,24,26,28,30,32,34,36,38,40,42,44,46,48,50,52,54,56,58,-1,60,62,64,66,68,70,72,74,76,-1,78,80,82,84,86,88,90,92,94,96,98,100,102,104,106,108,110,112,114,116,118,-1,-1,-1,-1,-1,-1,-1,-1,-1,-1,-1,-1,-1,-1,-1,-1,-1,-1,-1,-1,-1,-1,-1,-1,-1,-1,-1,-1,-1,-1,-1,-1,-1,-1,-1,-1,-1,-1,-1,-1,-1,-1,-1,-1,-1,-1,-1,-1,-1,-1,-1,-1,-1,-1,-1,-1,-1,-1],"split_conditions":[1E-45,9.4E1,1E-45,8.7E1,1.79E2,1E-45,4.12E2,1E-45,3.1E1,1E-45,1.85E2,1E-45,1.07E2,2.5E1,1E-45,6.8E1,6E0,3E0,1E-45,7.3E1,9.9E1,1E-45,1E-45,8.2E1,1E-45,9E0,1E-45,9E0,6E0,4.322705E-1,1.5E1,1E-45,2.171E3,4.9E1,8E1,1E-45,1E-45,5E0,1E-45,2.8583273E-1,2.17E2,1E-45,2.8E1,7.098E3,1E-45,1.501E3,2E0,2.94E2,1.103E3,4.9E1,1.6E1,2.506E3,2.568E3,3E0,1E-45,1E-45,1E-45,1E-45,1E-45,1E-45,3.7E1,2.8691483E-1,-6.522685E-2,-1.3079292E-1,2.2429301E-1,2.957414E-1,-7.7744566E-2,-3.8798398E-1,-9.8176114E-2,2.3430197E-1,-5.04603E-2,1.17351145E-1,-2.7175176E-1,7.72725E-2,3.2982236E-1,3.045616E-1,-1.9226344E-1,-4.261267E-1,9.7085185E-2,1.4114906E-1,-1.3328554E-1,-2.3389214E-1,1.4638129E-1,3.2877463E-1,-8.043185E-2,1.6526961E-1,-1.7901859E-1,2.0382148E-1,-7.53535E-2,1.10258155E-1,-1.22474216E-1,-6.8447776E-2,-9.4967545E-5,5.083274E-1,9.444079E-2,1.06361546E-1,-1.8663059E-1,-3.114866E-1,-1.000319E-1,3.2742456E-2,9.262967E-2,-1.8683103E-1,1.4659156E-1,3.3385336E-1,-6.542812E-2,-2.8033998E-2,-2.0226757E-1,-2.3802454E-2,-1.14615545E-1,-5.7996593E-2,-2.594437E-1,-9.054694E-3,-1.12271085E-1,7.3983036E-2,-1.3381304E-1,2.164619E-2,-2.8470716E-1,-1.8377096E-3,4.314111E-1],"split_indices":[14,12,2,12,12,8,12,1,0,10,12,10,12,5,10,12,9,13,10,5,12,10,1,0,1,11,10,5,11,0,9,3,5,0,12,1,3,9,1,0,5,10,9,5,1,5,13,5,5,0,9,5,5,11,10,10,10,1,1,10,0,0,0,0,0,0,0,0,0,0,0,0,0,0,0,0,0,0,0,0,0,0,0,0,0,0,0,0,0,0,0,0,0,0,0,0,0,0,0,0,0,0,0,0,0,0,0,0,0,0,0,0,0,0,0,0,0,0,0],"split_type":[1,0,1,0,0,1,0,1,0,1,0,1,0,0,1,0,0,0,1,0,0,1,1,0,1,0,1,0,0,0,0,1,0,0,0,1,1,0,1,0,0,1,0,0,1,0,0,0,0,0,0,0,0,0,1,1,1,1,1,1,0,0,0,0,0,0,0,0,0,0,0,0,0,0,0,0,0,0,0,0,0,0,0,0,0,0,0,0,0,0,0,0,0,0,0,0,0,0,0,0,0,0,0,0,0,0,0,0,0,0,0,0,0,0,0,0,0,0,0],"sum_hessian":[3.0950786E3,2.5113156E2,2.843947E3,6.702755E1,1.8410402E2,1.2883087E3,1.5556383E3,2.5726099E1,4.130145E1,7.246449E1,1.1163952E2,2.961866E2,9.9212213E2,1.5408824E3,1.4755961E1,1.6493147E1,9.232952E0,8.30266E0,3.299879E1,2.8469929E1,4.3994564E1,4.2614143E1,6.9025375E1,2.7730563E2,1.8880957E1,8.001923E2,1.919298E2,2.4339267E2,1.2974897E3,5.5974903E0,9.158471E0,7.4080772E0,9.08507E0,3.1397533E0,6.0931993E0,4.5447874E0,3.7578728E0,2.6365044E1,6.6337466E0,2.3658834E0,2.6104046E1,1.5364697E1,2.8629866E1,2.4145351E1,1.8468792E1,3.1574842E1,3.7450535E1,2.7436115E2,2.9445095E0,5.077665E0,1.380329E1,7.8175055E2,1.8441797E1,1.5332844E1,1.7659695E2,2.2140929E2,2.1983387E1,1.1925936E3,1.0489606E2,4.4118996E0,4.7465715E0,4.877467E0,2.53061E0,6.732732E0,2.3523378E0,2.0285187E0,1.1112345E0,2.9973674E0,3.0958316E0,3.2312942E0,1.3134934E0,1.3683379E0,2.389535E0,6.3752017E0,1.9989841E1,3.0696185E0,3.5641284E0,2.387063E0,2.3716982E1,8.884406E0,6.480292E0,2.66116E1,2.0182662E0,2.3128792E1,1.0165595E0,1.0380686E1,8.088107E0,2.141435E1,1.0160492E1,1.3715374E1,2.3735159E1,1.1056639E2,1.6379474E2,1.5792778E0,1.3652318E0,3.874856E0,1.202809E0,9.547084E0,4.2562065E0,6.468301E2,1.3492044E2,1.5725528E1,2.716269E0,1.0381066E1,4.9517775E0,1.4857549E2,2.8021467E1,1.2431661E2,9.7092674E1,5.598765E0,1.6384623E1,1.110886E3,8.170765E1,1.6977053E1,8.7919E1,2.020975E0,2.3909245E0,2.2337403E0,2.512831E0],"tree_param":{"num_deleted":"0","num_feature":"15","num_nodes":"119","size_leaf_vector":"1"}},{"base_weights":[-1.2950032E-2,-1.6181836E-1,8.791774E-3,-1.1590431E-1,-4.0449724E-1,-6.0330633E-2,6.0676854E-2,-9.962894E-2,-8.388807E-1,5.716483E-1,-4.6666512E-1,-2.909145E-2,-3.0780113E-1,8.3106205E-2,-2.0843661E-1,-1.19938836E-1,4.548631E-1,-2.8877473E-1,-2.5850847E-2,3.8288876E-1,-1.8041323E-1,-2.8574324E-1,-6.1734504E-1,-3.6074378E-2,9.4500667E-1,1.1381296E0,-4.7252592E-1,-5.421286E-1,9.032371E-2,6.8505776E-1,-2.779973E-1,2.4128656E-1,-1.4881384E-1,8.346544E-1,-2.4174038E-1,2.895107E-1,-5.4535615E-1,-6.99637E-1,6.8418435E-3,-6.607287E-2,1.9064882E-1,1.0687315E0,4.921318E-2,-2.057395E-1,1.3715779E0,-6.107166E-1,-1.1238627E-1,-6.979741E-1,2.5128517E-1,1.6658852E-1,3.159122E-2,1.0323092E0,-1.0843516E-1,5.184215E-2,-3.8942903E-1,-8.77008E-2,2.256025E-1,3.769118E-4,-6.825567E-2,3.3635417E-1,-1.249458E-1,4.095349E-1,-4.5873348E-2,-2.8685898E-2,-2.864035E-1,-2.3696178E-1,-1.24394916E-1,2.065506E-1,-2.0716056E-1,-8.108932E-3,-1.14229135E-1,1.0156464E-1,-1.5204458E-1,3.933624E-2,3.715592E-1,5.9781283E-1,1.897137E-1,-2.5080746E-1,-1.4610676E-1,2.7708283E-1,-7.9218104E-2,3.691098E-3,-2.5530612E-1,7.257385E-2,1.1846209E-2,3.6823068E-2,-2.986374E-2,3.0625262E-3,4.2099163E-1,-1.8523702E-1,8.177527E-2,-5.8204234E-2,-1.8518671E-1],"categories":[0,0,3,8,0,1,2,3,4,5,7,8,9,4,9,2,1,1,7,9,1,2,3,4,6,8,10,11,0,2,0,1,2,3,6,7,8,9,10,11,0,1,3,0,1,3,5,9,11,0,4,6,8,0,1,2,3,4,5,6,7,0,0,2,3,0,2,3,4,5,6,7,8,9,10,11,2,4,6,7,10,11,1,7,10,3,4,6,7,8,9,11],"categories_nodes":[0,2,3,4,5,6,9,10,14,16,24,30,32,36,38,39,44,47,49,50,54],"categories_segments":[0,1,2,4,13,15,16,17,20,28,30,40,43,49,53,61,62,65,76,82,85],"categories_sizes":[1,1,2,9,2,1,1,3,8,2,10,3,6,4,8,1,3,11,6,3,7],"default_left":[1,0,1,1,1,1,1,0,0,1,1,0,0,0,1,0,1,0,0,0,0,0,0,0,1,0,0,0,0,0,1,0,1,0,0,0,1,0,1,1,0,0,0,0,1,0,0,1,0,1,1,0,0,0,1,0,0,0,0,0,0,0,0,0,0,0,0,0,0,0,0,0,0,0,0,0,0,0,0,0,0,0,0,0,0,0,0,0,0,0,0,0,0],"id":9,"left_children":[1,3,5,7,9,11,13,15,17,19,21,23,25,27,29,31,33,-1,-1,-1,-1,35,37,39,41,43,45,47,49,51,53,55,57,59,-1,61,63,65,67,69,71,73,-1,-1,75,77,79,81,-1,83,85,87,-1,89,91,-1,-1,-1,-1,-1,-1,-1,-1,-1,-1,-1,-1,-1,-1,-1,-1,-1,-1,-1,-1,-1,-1,-1,-1,-1,-1,-1,-1,-1,-1,-1,-1,-1,-1,-1,-1,-1,-1],"loss_changes":[9.890856E0,4.2922134E0,9.568701E0,3.7861266E0,4.0021744E0,8.835463E0,9.216017E0,3.689412E0,5.7867E-1,4.185344E0,1.4161816E0,6.9512787E0,3.1055122E1,6.4002E0,7.4950843E0,3.2917542E0,6.2327914E0,0E0,0E0,0E0,0E0,4.400344E0,1.5977259E0,6.8863926E0,5.276079E-1,6.645033E0,5.6909904E0,4.0690103E0,6.2308407E0,3.5629396E0,4.054034E0,6.620721E0,3.421586E0,3.8423324E0,0E0,4.7232785E0,3.5758257E0,3.773327E-1,2.6634042E0,1.0965208E1,1.2380395E1,8.085327E-1,0E0,0E0,4.346098E0,1.9174557E0,5.479303E0,1.652493E0,0E0,5.7871475E0,9.428595E0,2.5831852E0,0E0,4.39334E0,3.5383081E0,0E0,0E0,0E0,0E0,0E0,0E0,0E0,0E0,0E0,0E0,0E0,0E0,0E0,0E0,0E0,0E0,0E0,0E0,0E0,0E0,0E0,0E0,0E0,0E0,0E0,0E0,0E0,0E0,0E0,0E0,0E0,0E0,0E0,0E0,0E0,0E0,0E0,0E0],"parents":[2147483647,0,0,1,1,2,2,3,3,4,4,5,5,6,6,7,7,8,8,9,9,10,10,11,11,12,12,13,13,14,14,15,15,16,16,21,21,22,22,23,23,24,24,25,25,26,26,27,27,28,28,29,29,30,30,31,31,32,32,33,33,35,35,36,36,37,37,38,38,39,39,40,40,41,41,44,44,45,45,46,46,47,47,49,49,50,50,51,51,53,53,54,54],"right_children":[2,4,6,8,10,12,14,16,18,20,22,24,26,28,30,32,34,-1,-1,-1,-1,36,38,40,42,44,46,48,50,52,54,56,58,60,-1,62,64,66,68,70,72,74,-1,-1,76,78,80,82,-1,84,86,88,-1,90,92,-1,-1,-1,-1,-1,-1,-1,-1,-1,-1,-1,-1,-1,-1,-1,-1,-1,-1,-1,-1,-1,-1,-1,-1,-1,-1,-1,-1,-1,-1,-1,-1,-1,-1,-1,-1,-1,-1],"split_conditions":[1E-45,2.6E1,1E-45,1E-45,1E-45,1E-45,1E-45,3.51E2,5.3E1,1E-45,1E-45,6.3E1,1.7E1,-4.3E1,1E-45,2.7E1,1E-45,-2.8877473E-1,-2.5850847E-2,3.8288876E-1,-1.8041323E-1,3.5E1,5.3E1,3E0,1E-45,3E0,2.994E3,3E1,2E0,1.5E1,1E-45,2E0,1E-45,4.12E2,-2.4174038E-1,1E0,1E-45,3E1,1E-45,1E-45,4E0,4.71E2,4.921318E-2,-2.057395E-1,1E-45,1.9E1,3.2E1,1E-45,2.5128517E-1,1E-45,1E-45,1.02E2,-1.0843516E-1,3.6E1,1E-45,-8.77008E-2,2.256025E-1,3.769118E-4,-6.825567E-2,3.3635417E-1,-1.249458E-1,4.095349E-1,-4.5873348E-2,-2.8685898E-2,-2.864035E-1,-2.3696178E-1,-1.24394916E-1,2.065506E-1,-2.0716056E-1,-8.108932E-3,-1.14229135E-1,1.0156464E-1,-1.5204458E-1,3.933624E-2,3.715592E-1,5.9781283E-1,1.897137E-1,-2.5080746E-1,-1.4610676E-1,2.7708283E-1,-7.9218104E-2,3.691098E-3,-2.5530612E-1,7.257385E-2,1.1846209E-2,3.6823068E-2,-2.986374E-2,3.0625262E-3,4.2099163E-1,-1.8523702E-1,8.177527E-2,-5.8204234E-2,-1.8518671E-1],"split_indices":[7,9,6,1,1,10,8,12,0,3,1,0,9,5,10,0,1,0,0,0,0,0,0,13,1,9,5,9,11,9,3,11,10,12,0,5,10,9,1,14,11,5,0,0,3,9,0,1,0,10,10,5,0,0,1,0,0,0,0,0,0,0,0,0,0,0,0,0,0,0,0,0,0,0,0,0,0,0,0,0,0,0,0,0,0,0,0,0,0,0,0,0,0],"split_type":[1,0,1,1,1,1,1,0,0,1,1,0,0,0,1,0,1,0,0,0,0,0,0,0,1,0,0,0,0,0,1,0,1,0,0,0,1,0,1,1,0,0,0,0,1,0,0,1,0,1,1,0,0,0,1,0,0,0,0,0,0,0,0,0,0,0,0,0,0,0,0,0,0,0,0,0,0,0,0,0,0,0,0,0,0,0,0,0,0,0,0,0,0],"sum_hessian":[3.054438E3,3.8842316E2,2.666015E3,3.2786902E2,6.0554134E1,1.1430529E3,1.522962E3,3.2176343E2,6.1056085E0,3.1349316E0,5.7419205E1,1.015926E3,1.27126816E2,1.4064336E3,1.1652848E2,3.1115033E2,1.0613094E1,5.0043635E0,1.1012449E0,1.903465E0,1.2314664E0,2.7407404E1,3.0011799E1,1.0096512E3,6.2748275E0,1.2397146E1,1.1472967E2,1.5204351E1,1.3912292E3,7.7776494E0,1.0875083E2,2.2486662E1,2.8866367E2,8.415686E0,2.1974084E0,8.486884E0,1.8920519E1,2.6409172E1,3.6026266E0,8.92297E2,1.1735417E2,5.0985966E0,1.1762308E0,1.1868229E0,1.1210323E1,8.241145E1,3.2318214E1,1.4105258E1,1.0990927E0,6.0447504E2,7.867542E2,5.850057E0,1.9275924E0,2.759728E1,8.115356E1,1.1205894E1,1.12807665E1,9.964685E1,1.890168E2,6.932039E0,1.4836471E0,1.8656375E0,6.621247E0,9.602988E0,9.317531E0,1.8712595E1,7.6965785E0,1.8282785E0,1.7743481E0,7.947765E2,9.752051E1,9.724714E1,2.010703E1,1.0535002E0,4.0450964E0,5.170176E0,6.040147E0,2.7167381E1,5.524407E1,3.4773133E0,2.8840902E1,2.6635413E0,1.1441717E1,3.7897733E2,2.2549773E2,4.6417426E2,3.2257996E2,1.8315696E0,4.0184875E0,6.398769E0,2.1198511E1,4.4683773E1,3.646978E1],"tree_param":{"num_deleted":"0","num_feature":"15","num_nodes":"93","size_leaf_vector":"1"}},{"base_weights":[-1.1154729E-2,-5.058603E-3,-4.4224572E-1,-1.161146E-2,3.3361837E-1,2.0617408E-1,-5.870495E-1,1.068064E-3,-3.247684E-1,5.813048E-1,-2.024867E-1,-2.2861663E-1,6.5352124E-1,1.2512834E-1,-6.310865E-1,-9.145435E-2,2.846883E-2,-2.9692983E-2,-6.0142547E-1,-2.011708E-1,6.585443E-1,2.7251366E-1,-6.0782665E-1,1.1255887E0,-1.0029722E-1,-4.6026078E-1,-8.942555E-1,1.1454309E-2,-1.8517594E-1,7.9783015E-2,-3.2763384E-2,-2.270804E-1,5.8629256E-1,-5.8656313E-2,-6.931284E-1,7.8910035E-1,-2.8486022E-1,5.795524E-1,-2.749053E-1,4.6980864E-1,-1.0037054E0,4.5074946E-1,4.645433E-2,-5.507429E-1,1.0204766E-1,-1.0318034E-1,-2.8832734E-1,1.2259792E-2,-1.612148E-1,-7.165435E-2,5.1016454E-2,2.281281E-1,1.4520642E-2,1.05247125E-1,-3.2715138E-2,-2.0121329E-2,-2.3799425E-1,3.270263E-1,-2.5328105E-2,-1.7050917E-1,1.792145E-1,1.16334274E-1,-2.2048442E-1,4.565591E-1,1.767268E-1,-2.5035343E-1,1.5252252E-1,-6.017666E-2,3.4398448E-1,2.3800686E-1,-1.688997E-2,-3.8856202E-1,-6.1033268E-2,-2.1280803E-1,-4.5746644E-3],"categories":[6,7,9,11,0,1,3,4,5,6,7,8,9,10,11,0,1,2,3,8,9,10,0,2,1,2,3,4,2,3,4,8,9,0,0,1,4,9,8,11,0,1,2,3,5,6,7,8,10,11,0,1,2,4,5,6,7,9,11,0,2],"categories_nodes":[4,6,7,8,10,12,15,20,26,27,29,30,39,43],"categories_segments":[0,4,15,16,22,24,28,33,34,38,40,50,59,60],"categories_sizes":[4,11,1,6,2,4,5,1,4,2,10,9,1,1],"default_left":[0,0,0,0,1,0,1,1,1,0,1,0,1,0,0,1,0,0,0,0,1,0,0,0,0,0,1,1,0,1,1,0,0,0,0,0,0,0,0,1,0,0,0,1,0,0,0,0,0,0,0,0,0,0,0,0,0,0,0,0,0,0,0,0,0,0,0,0,0,0,0,0,0,0,0],"id":10,"left_children":[1,3,5,7,9,11,13,15,17,19,21,-1,23,-1,25,27,29,31,33,-1,35,37,39,41,-1,43,45,47,49,51,53,55,57,59,61,63,65,67,-1,69,71,-1,-1,73,-1,-1,-1,-1,-1,-1,-1,-1,-1,-1,-1,-1,-1,-1,-1,-1,-1,-1,-1,-1,-1,-1,-1,-1,-1,-1,-1,-1,-1,-1,-1],"loss_changes":[7.9473977E0,6.6258793E0,4.0804205E0,1.16271105E1,7.642688E0,4.15283E0,1.7990036E0,7.1396694E0,9.284314E0,4.214609E0,3.756446E0,0E0,3.3187625E0,0E0,1.1020603E0,6.2082586E0,6.829518E0,6.965263E0,2.883932E0,0E0,4.8136177E0,3.9176383E0,4.8965583E0,1.4132648E0,0E0,1.8152318E0,1.1789131E-1,4.988039E0,6.4625254E0,2.5218155E1,2.9047592E1,3.8676622E0,4.794138E0,3.5446248E0,2.5529766E0,3.9389744E0,2.7194438E0,3.7628648E0,0E0,6.349674E-1,1.5804534E0,0E0,0E0,1.7369032E0,0E0,0E0,0E0,0E0,0E0,0E0,0E0,0E0,0E0,0E0,0E0,0E0,0E0,0E0,0E0,0E0,0E0,0E0,0E0,0E0,0E0,0E0,0E0,0E0,0E0,0E0,0E0,0E0,0E0,0E0,0E0],"parents":[2147483647,0,0,1,1,2,2,3,3,4,4,5,5,6,6,7,7,8,8,9,9,10,10,12,12,14,14,15,15,16,16,17,17,18,18,20,20,21,21,22,22,23,23,25,25,26,26,27,27,28,28,29,29,30,30,31,31,32,32,33,33,34,34,35,35,36,36,37,37,39,39,40,40,43,43],"right_children":[2,4,6,8,10,12,14,16,18,20,22,-1,24,-1,26,28,30,32,34,-1,36,38,40,42,-1,44,46,48,50,52,54,56,58,60,62,64,66,68,-1,70,72,-1,-1,74,-1,-1,-1,-1,-1,-1,-1,-1,-1,-1,-1,-1,-1,-1,-1,-1,-1,-1,-1,-1,-1,-1,-1,-1,-1,-1,-1,-1,-1,-1,-1],"split_conditions":[1.2E1,3.71E2,3.1E1,3.25E2,1E-45,2.7E1,1E-45,1E-45,1E-45,3E0,1E-45,-2.2861663E-1,1E-45,1.2512834E-1,1.8E1,1E-45,1.7E1,3E0,3E0,-2.011708E-1,1E-45,3.655E3,6.42E2,1.8E1,-1.0029722E-1,3E1,1E-45,1E-45,3.165E3,1E-45,1E-45,4E0,3.5E2,1.5E1,5E0,1.62E2,1.9E1,9.16E2,-2.749053E-1,1E-45,2.627E3,4.5074946E-1,4.645433E-2,1E-45,1.0204766E-1,-1.0318034E-1,-2.8832734E-1,1.2259792E-2,-1.612148E-1,-7.165435E-2,5.1016454E-2,2.281281E-1,1.4520642E-2,1.05247125E-1,-3.2715138E-2,-2.0121329E-2,-2.3799425E-1,3.270263E-1,-2.5328105E-2,-1.7050917E-1,1.792145E-1,1.16334274E-1,-2.2048442E-1,4.565591E-1,1.767268E-1,-2.5035343E-1,1.5252252E-1,-6.017666E-2,3.4398448E-1,2.3800686E-1,-1.688997E-2,-3.8856202E-1,-6.1033268E-2,-2.1280803E-1,-4.5746644E-3],"split_indices":[11,12,0,12,10,0,1,8,1,9,3,0,1,0,11,10,9,11,5,0,2,5,5,11,0,9,1,1,5,10,10,13,12,9,9,5,9,5,0,14,5,0,0,2,0,0,0,0,0,0,0,0,0,0,0,0,0,0,0,0,0,0,0,0,0,0,0,0,0,0,0,0,0,0,0],"split_type":[0,0,0,0,1,0,1,1,1,0,1,0,1,0,0,1,0,0,0,0,1,0,0,0,0,0,1,1,0,1,1,0,0,0,0,0,0,0,0,1,0,0,0,1,0,0,0,0,0,0,0,0,0,0,0,0,0,0,0,0,0,0,0,0,0,0,0,0,0,0,0,0,0,0,0],"sum_hessian":[3.0239927E3,2.982824E3,4.116885E1,2.9271538E3,5.5670017E1,7.4380455E0,3.3730804E1,2.814205E3,1.1294877E2,3.8020035E1,1.7649982E1,2.1282353E0,5.3098097E0,1.0612172E0,3.2669586E1,6.424723E2,2.171733E3,5.519089E1,5.7757877E1,1.7630687E0,3.6256966E1,8.277559E0,9.372422E0,3.4985156E0,1.8112942E0,2.147734E1,1.1192247E1,3.0664554E2,3.3582675E2,1.1813923E3,9.9034045E2,4.2275436E1,1.2915456E1,8.58497E0,4.9172905E1,3.1993065E1,4.263901E0,6.985885E0,1.2916741E0,2.4678512E0,6.9045715E0,2.1254733E0,1.3730423E0,1.9576302E1,1.9010388E0,1.8776605E0,9.314587E0,2.91927E2,1.4718554E1,2.920313E2,4.3795437E1,5.104328E1,1.1303491E3,1.6368747E2,8.2665295E2,3.383314E1,8.442296E0,7.0184574E0,5.8969984E0,4.906509E0,3.678462E0,1.5234597E0,4.7649445E1,5.4430223E0,2.6550043E1,2.487994E0,1.7759074E0,3.2125113E0,3.773374E0,1.2135614E0,1.2542896E0,4.6077013E0,2.2968702E0,1.485227E1,4.7240314E0],"tree_param":{"num_deleted":"0","num_feature":"15","num_nodes":"75","size_leaf_vector":"1"}},{"base_weights":[-9.260851E-3,3.643031E-2,-4.821097E-2,-2.5484318E-1,5.2360047E-2,-3.9781116E-2,-5.216093E-1,4.2676175E-1,-4.9184397E-1,2.3123764E-1,2.8596388E-2,-7.459851E-2,7.995882E-2,2.5461188E-1,-6.5513825E-1,7.6878786E-1,-7.411709E-1,6.653158E-2,-6.169058E-1,-7.9606526E-2,3.937196E-1,2.0421797E-2,4.383993E-1,-3.3212874E-2,-2.264081E-1,1.29882E-1,-3.5157576E-1,-3.1316578E-1,-3.277537E-1,9.786111E-1,-1.1711702E-1,-2.9649478E-1,-2.2420099E-3,4.6036598E-1,-5.135857E-1,-1.20511524E-1,-7.354158E-1,1.9834901E-1,-4.2291626E-1,5.430604E-1,-7.059929E-2,1.12722395E-2,4.3060797E-1,1.5148172E0,1.1383121E-2,-6.085879E-3,-2.5641966E-1,-9.9457934E-2,-3.7004632E-1,9.905445E-2,6.9183785E-1,-9.627656E-2,-6.432019E-1,-5.375167E-1,3.9031792E-1,3.4880668E-1,-2.1639183E-2,-6.910426E-2,4.271073E-1,9.748442E-3,-2.0457625E-1,9.796467E-2,-2.2646987E-1,-2.5455612E-1,1.5876371E-3,1.944019E-1,-3.5745263E-2,5.0808933E-2,-1.6924979E-1,1.8038799E-1,-1.300537E-1,-5.422831E-2,3.24282E-1,7.346351E-3,-8.733064E-2,1.8653516E-1,-8.280452E-2,5.1111907E-1,1.03977E-1,7.869355E-2,-2.5821713E-1,-8.849162E-3,1.4695501E-1,2.6938617E-1,-1.10134475E-1,-4.81668E-2,1.3489518E-1,2.2482552E-1,-1.176359E-1,1.8928392E-2,1.7558771E-1,2.7271518E-1,-3.5609562E-2,1.1589188E-1,-1.5356669E-1,-2.621239E-1,-1.1618876E-1,-2.794765E-1,-7.23714E-2,2.8585315E-1,-9.47253E-2],"categories":[1,1,3,6,7,9,10,0,1,2,3,4,7,8,9,0,1,3,4,5,6,7,8,9,10,0,1,0,3,2,3,6,9,10,0,1,3,0,3,1,2,3,4,5,6,7,8,10,11,1,7,8,9,0,3,4,9,2,3,5,6,10,11,3,5,8,11,1,2,3,6,7,8,11,0,2,0,2,3,4,6,7,8,10,11],"categories_nodes":[0,3,4,6,7,11,12,14,17,19,20,22,24,26,29,37,38,42,43,46],"categories_segments":[0,1,7,15,25,27,29,30,34,35,37,39,49,53,57,63,67,74,75,76],"categories_sizes":[1,6,8,10,2,2,1,4,1,2,2,10,4,4,6,4,7,1,1,9],"default_left":[1,0,0,1,1,0,1,1,0,0,0,1,1,0,1,0,0,1,0,1,1,0,1,0,1,0,1,0,0,1,0,0,0,0,0,0,0,1,1,0,0,0,1,1,0,0,1,0,0,0,0,0,0,0,0,0,0,0,0,0,0,0,0,0,0,0,0,0,0,0,0,0,0,0,0,0,0,0,0,0,0,0,0,0,0,0,0,0,0,0,0,0,0,0,0,0,0,0,0,0,0],"id":11,"left_children":[1,3,5,7,9,11,13,15,17,19,21,23,25,-1,27,29,31,33,35,37,39,41,43,45,47,49,51,53,-1,55,-1,-1,-1,57,59,61,63,65,67,69,71,73,75,77,79,81,83,85,87,89,91,93,95,97,99,-1,-1,-1,-1,-1,-1,-1,-1,-1,-1,-1,-1,-1,-1,-1,-1,-1,-1,-1,-1,-1,-1,-1,-1,-1,-1,-1,-1,-1,-1,-1,-1,-1,-1,-1,-1,-1,-1,-1,-1,-1,-1,-1,-1,-1,-1],"loss_changes":[5.338154E0,6.418393E0,6.440542E0,1.1800638E1,5.5605326E0,6.6424465E0,5.7240934E0,8.178483E0,3.7912626E0,7.781266E0,3.8677363E0,7.743931E0,7.7815695E0,0E0,3.5916853E0,4.084771E0,8.6727715E-1,2.6878972E0,2.4982624E0,5.1896443E0,7.0375795E0,4.2572536E0,1.0363289E1,5.875643E0,4.779438E0,5.5197263E0,2.730287E0,2.7606158E0,0E0,2.6322498E0,0E0,0E0,0E0,4.9313154E0,4.644537E-1,2.9893155E0,2.9620762E0,4.3955703E0,2.1249375E0,4.610485E0,3.4237888E0,4.450324E0,3.5153503E0,8.2344246E-1,3.9847038E0,1.0074838E1,1.37671585E1,4.821902E0,3.3467903E0,5.330444E0,3.0319743E0,4.4444227E0,6.840472E-1,1.2551053E0,2.0831442E0,0E0,0E0,0E0,0E0,0E0,0E0,0E0,0E0,0E0,0E0,0E0,0E0,0E0,0E0,0E0,0E0,0E0,0E0,0E0,0E0,0E0,0E0,0E0,0E0,0E0,0E0,0E0,0E0,0E0,0E0,0E0,0E0,0E0,0E0,0E0,0E0,0E0,0E0,0E0,0E0,0E0,0E0,0E0,0E0,0E0,0E0],"parents":[2147483647,0,0,1,1,2,2,3,3,4,4,5,5,6,6,7,7,8,8,9,9,10,10,11,11,12,12,14,14,15,15,16,16,17,17,18,18,19,19,20,20,21,21,22,22,23,23,24,24,25,25,26,26,27,27,29,29,33,33,34,34,35,35,36,36,37,37,38,38,39,39,40,40,41,41,42,42,43,43,44,44,45,45,46,46,47,47,48,48,49,49,50,50,51,51,52,52,53,53,54,54],"right_children":[2,4,6,8,10,12,14,16,18,20,22,24,26,-1,28,30,32,34,36,38,40,42,44,46,48,50,52,54,-1,56,-1,-1,-1,58,60,62,64,66,68,70,72,74,76,78,80,82,84,86,88,90,92,94,96,98,100,-1,-1,-1,-1,-1,-1,-1,-1,-1,-1,-1,-1,-1,-1,-1,-1,-1,-1,-1,-1,-1,-1,-1,-1,-1,-1,-1,-1,-1,-1,-1,-1,-1,-1,-1,-1,-1,-1,-1,-1,-1,-1,-1,-1,-1,-1],"split_conditions":[1E-45,3E0,1.2392E4,1E-45,1E-45,2.231E3,1E-45,1E-45,9E1,1.2E1,1.0788E4,1E-45,1E-45,2.5461188E-1,1E-45,4.515E3,4.7E1,1E-45,2E0,1E-45,1E-45,3.7E2,1E-45,1.97E2,1E-45,7E0,1E-45,6.1E1,-3.277537E-1,1E-45,-1.1711702E-1,-2.9649478E-1,-2.2420099E-3,3.6E1,2E0,3.9E1,4.168E3,1E-45,1E-45,7.098E3,8.4E1,3.25E2,1E-45,1E-45,4.9E1,1.79E2,1E-45,7.2E1,2.8E1,2.6E2,5.252E3,4.2E1,4.3E1,1.2E1,2E0,3.4880668E-1,-2.1639183E-2,-6.910426E-2,4.271073E-1,9.748442E-3,-2.0457625E-1,9.796467E-2,-2.2646987E-1,-2.5455612E-1,1.5876371E-3,1.944019E-1,-3.5745263E-2,5.0808933E-2,-1.6924979E-1,1.8038799E-1,-1.300537E-1,-5.422831E-2,3.24282E-1,7.346351E-3,-8.733064E-2,1.8653516E-1,-8.280452E-2,5.1111907E-1,1.03977E-1,7.869355E-2,-2.5821713E-1,-8.849162E-3,1.4695501E-1,2.6938617E-1,-1.10134475E-1,-4.81668E-2,1.3489518E-1,2.2482552E-1,-1.176359E-1,1.8928392E-2,1.7558771E-1,2.7271518E-1,-3.5609562E-2,1.1589188E-1,-1.5356669E-1,-2.621239E-1,-1.1618876E-1,-2.794765E-1,-7.23714E-2,2.8585315E-1,-9.47253E-2],"split_indices":[2,9,5,10,1,5,1,14,5,9,5,3,8,0,10,5,0,2,9,3,3,12,1,12,10,13,1,0,0,1,0,0,0,0,9,0,5,10,10,5,0,12,2,8,0,12,10,0,0,12,5,0,0,9,11,0,0,0,0,0,0,0,0,0,0,0,0,0,0,0,0,0,0,0,0,0,0,0,0,0,0,0,0,0,0,0,0,0,0,0,0,0,0,0,0,0,0,0,0,0,0],"split_type":[1,0,0,1,1,0,1,1,0,0,0,1,1,0,1,0,0,1,0,1,1,0,1,0,1,0,1,0,0,1,0,0,0,0,0,0,0,1,1,0,0,0,1,1,0,0,1,0,0,0,0,0,0,0,0,0,0,0,0,0,0,0,0,0,0,0,0,0,0,0,0,0,0,0,0,0,0,0,0,0,0,0,0,0,0,0,0,0,0,0,0,0,0,0,0,0,0,0,0,0,0],"sum_hessian":[2.9975215E3,1.3794254E3,1.618096E3,7.075111E1,1.3086743E3,1.5908516E3,2.7244425E1,1.8047249E1,5.2703857E1,1.5244386E2,1.1562305E3,1.2327698E3,3.580818E2,1.943513E0,2.5300913E1,1.4223643E1,3.823605E0,9.729893E0,4.2973965E1,5.250556E1,9.99383E1,1.1346467E3,2.1583662E1,9.6964764E2,2.6312213E2,3.2157822E2,3.6503574E1,1.5162064E1,1.0138848E1,1.217552E1,2.048124E0,2.6005714E0,1.2230335E0,5.9183946E0,3.8114986E0,8.671049E0,3.4302914E1,2.9247782E1,2.325778E1,7.548891E1,2.4449394E1,1.1108948E3,2.3751993E1,5.406803E0,1.6176859E1,8.654894E2,1.0415827E2,1.4057327E2,1.2254887E2,3.0596973E2,1.5608497E1,2.0173317E1,1.6330257E1,1.1674745E1,3.48732E0,1.0269825E1,1.9056946E0,3.8900633E0,2.0283313E0,1.0882317E0,2.723267E0,5.3711753E0,3.299874E0,2.9632536E1,4.670378E0,1.1673828E1,1.7573954E1,4.4402347E0,1.8817545E1,7.1603485E1,3.8854198E0,2.3084087E1,1.3653073E0,1.0652556E3,4.563913E1,1.8788778E1,4.963215E0,4.2595983E0,1.1472049E0,1.3105324E1,3.0715356E0,8.273726E2,3.8116726E1,8.491685E0,9.566658E1,1.2713487E2,1.3438403E1,1.7325004E0,1.2081637E2,2.8595184E2,2.001786E1,1.2213819E1,3.3946784E0,9.367213E0,1.0806103E1,7.3207254E0,9.009531E0,4.0901976E0,7.5845466E0,1.746431E0,1.7408888E0],"tree_param":{"num_deleted":"0","num_feature":"15","num_nodes":"101","size_leaf_vector":"1"}},{"base_weights":[-7.7592E-3,-4.92575E-3,-6.247936E-1,-1.1016805E-1,9.9253915E-3,5.762246E-1,-8.8665473E-1,-9.783276E-2,-6.9953406E-1,-8.0399916E-2,2.436686E-2,2.7922216E-1,-1.8946659E-2,-5.921407E-2,-2.853662E-1,-8.5007444E-2,-6.6763943E-1,-2.764409E-1,-1.807136E-1,1.0894414E-1,-1.6623503E-1,4.8103027E-2,-5.7309777E-2,-2.5004992E-1,-7.558548E-2,-3.4198105E-2,-7.495117E-1,-1.8436113E-1,1.1858467E-1,5.145373E-1,-1.317823E-1,-2.2496898E-1,1.18299335E-1,2.8314633E-2,5.6679255E-1,3.101389E-1,-1.3759002E-1,3.2990213E-2,-3.8754225E-2,-7.624566E-2,-2.5465733E-1,2.9549299E-2,2.8705683E-1,1.0941423E-2,-1.4256887E-1,1.4182883E-2,-9.7236864E-2,9.914238E-2,-1.4369829E-1,1.322886E-2,-4.3931775E-2,4.0731514E-1,1.0718932E-1,1.7443854E-1,-1.878178E-3,3.467012E-2,-6.451344E-2],"categories":[0,0,1,4,7,9,3,8,0,1,3,4,7,8,0,0,3,4,6,7,8,9,10,11,4,5,6,9,1,4,5,7,8,9,10,2,3,4,6,9,2,3,4,6,7,8,9,10,11,2,1,2,4,5,6,7,9],"categories_nodes":[1,2,3,9,19,20,22,30,31,32,34,35,36],"categories_segments":[0,1,6,8,11,14,15,24,28,35,40,49,50],"categories_sizes":[1,5,2,3,3,1,9,4,7,5,9,1,7],"default_left":[0,1,1,1,0,0,0,0,0,1,0,0,0,0,0,0,0,0,0,1,1,0,1,0,0,0,0,0,0,0,1,1,1,0,1,1,1,0,0,0,0,0,0,0,0,0,0,0,0,0,0,0,0,0,0,0,0],"id":12,"left_children":[1,3,5,7,9,11,13,15,17,19,21,-1,-1,-1,-1,23,25,-1,27,29,31,33,35,-1,37,-1,39,-1,-1,41,43,45,47,49,51,53,55,-1,-1,-1,-1,-1,-1,-1,-1,-1,-1,-1,-1,-1,-1,-1,-1,-1,-1,-1,-1],"loss_changes":[5.203026E0,4.6355205E0,4.7892137E0,2.5979218E0,3.392672E0,7.481276E-1,3.268118E-1,2.5770726E0,6.805141E-1,5.8452635E0,4.3489923E0,0E0,0E0,0E0,0E0,2.43081E0,2.6755834E-1,0E0,1.1044906E0,1.1046311E1,4.1561036E0,1.7818546E1,1.4947258E1,0E0,3.4980705E0,0E0,1.0930514E-1,0E0,0E0,7.650096E0,4.1408625E0,5.553585E0,5.5994473E0,4.6253166E0,1.0086435E1,7.8073454E0,8.169252E0,0E0,0E0,0E0,0E0,0E0,0E0,0E0,0E0,0E0,0E0,0E0,0E0,0E0,0E0,0E0,0E0,0E0,0E0,0E0,0E0],"parents":[2147483647,0,0,1,1,2,2,3,3,4,4,5,5,6,6,7,7,8,8,9,9,10,10,15,15,16,16,18,18,19,19,20,20,21,21,22,22,24,24,26,26,29,29,30,30,31,31,32,32,33,33,34,34,35,35,36,36],"right_children":[2,4,6,8,10,12,14,16,18,20,22,-1,-1,-1,-1,24,26,-1,28,30,32,34,36,-1,38,-1,40,-1,-1,42,44,46,48,50,52,54,56,-1,-1,-1,-1,-1,-1,-1,-1,-1,-1,-1,-1,-1,-1,-1,-1,-1,-1,-1,-1],"split_conditions":[1.8E1,1E-45,1E-45,1E-45,3.6E1,4.71E2,1E1,1E1,4.8E1,1E-45,9.4E1,2.7922216E-1,-1.8946659E-2,-5.921407E-2,-2.853662E-1,-9.39E2,-2.6E1,-2.764409E-1,5.12E2,1E-45,1E-45,8.7E1,1E-45,-2.5004992E-1,7E0,-3.4198105E-2,1.7E1,-1.8436113E-1,1.1858467E-1,3.9E1,1E-45,1E-45,1E-45,5.741E3,1E-45,1E-45,1E-45,3.2990213E-2,-3.8754225E-2,-7.624566E-2,-2.5465733E-1,2.9549299E-2,2.8705683E-1,1.0941423E-2,-1.4256887E-1,1.4182883E-2,-9.7236864E-2,9.914238E-2,-1.4369829E-1,1.322886E-2,-4.3931775E-2,4.0731514E-1,1.0718932E-1,1.7443854E-1,-1.878178E-3,3.467012E-2,-6.451344E-2],"split_indices":[11,7,1,1,5,5,9,11,0,3,12,0,0,0,0,5,5,0,5,1,2,12,10,0,5,0,9,0,0,0,10,10,10,5,10,14,1,0,0,0,0,0,0,0,0,0,0,0,0,0,0,0,0,0,0,0,0],"split_type":[0,1,1,1,0,0,0,0,0,1,0,0,0,0,0,0,0,0,0,1,1,0,1,0,0,0,0,0,0,0,1,1,1,0,1,1,1,0,0,0,0,0,0,0,0,0,0,0,0,0,0,0,0,0,0,0,0],"sum_hessian":[2.9767483E3,2.9641448E3,1.2603501E1,3.6576202E2,2.5983828E3,2.0411823E0,1.0562319E1,3.5940573E2,6.3562765E0,3.575418E2,2.2408408E3,1.0199568E0,1.0212255E0,1.2521372E0,9.310183E0,3.5261813E2,6.7876062E0,3.9083278E0,2.4479485E0,1.1144206E2,2.4609976E2,1.7365814E3,5.0425946E2,3.2962554E0,3.4932187E2,1.18263E0,5.6049767E0,1.3581309E0,1.0898175E0,4.1083763E1,7.03583E1,2.0416507E2,4.193468E1,1.67378E3,6.2801376E1,8.990309E1,4.1435638E2,7.805048E1,2.712714E2,1.5307239E0,4.0742526E0,2.1800844E1,1.9282919E1,4.7823517E1,2.253478E1,5.4646435E1,1.4951865E2,3.1272526E1,1.0662155E1,1.5358308E3,1.379492E2,1.200331E1,5.0798065E1,4.7948204E1,4.195489E1,9.69589E1,3.1739746E2],"tree_param":{"num_deleted":"0","num_feature":"15","num_nodes":"57","size_leaf_vector":"1"}}]},"name":"gbtree"},"learner_model_param":{"base_score":"1.1698833E-1","boost_from_average":"1","num_class":"0","num_feature":"15","num_target":"1"},"objective":{"name":"binary:logistic","reg_loss_param":{"scale_pos_weight":"1"}}},"version":[3,0,2]}